digraph Tree {
node [shape=box, style="filled, rounded", color="black", fontname="helvetica"] ;
edge [fontname="helvetica"] ;
0 [label="pixel351 <= 126.5\ngini = 0.9\nsamples = 52500\nvalue = [5189, 5900, 5229, 5335, 5237, 4706, 5115, 5415, 5168\n5206]\nclass = 1", fillcolor="#fffffd"] ;
1 [label="pixel436 <= 0.5\ngini = 0.88\nsamples = 33904\nvalue = [4780, 510, 4152, 1057, 4777, 2760, 4089, 4952, 2688\n4139]\nclass = 7", fillcolor="#fefeff"] ;
0 -> 1 [labeldistance=2.5, labelangle=45, headlabel="True"] ;
2 [label="pixel598 <= 1.5\ngini = 0.687\nsamples = 8946\nvalue = [4665, 30, 539, 238, 379, 800, 499, 1317, 105, 374]\nclass = 0", fillcolor="#f4c8a8"] ;
1 -> 2 ;
3 [label="pixel487 <= 0.5\ngini = 0.789\nsamples = 3294\nvalue = [395, 20, 113, 78, 369, 338, 308, 1281, 34, 358]\nclass = 7", fillcolor="#e3c2f7"] ;
2 -> 3 ;
4 [label="pixel405 <= 0.5\ngini = 0.593\nsamples = 1989\nvalue = [154, 19, 40, 59, 78, 192, 35, 1227, 12, 173]\nclass = 7", fillcolor="#ca8df0"] ;
3 -> 4 ;
5 [label="pixel539 <= 1.0\ngini = 0.365\nsamples = 1522\nvalue = [137.0, 3.0, 35.0, 18.0, 24.0, 48.0, 16.0, 1203.0, 2.0\n36.0]\nclass = 7", fillcolor="#b867eb"] ;
4 -> 5 ;
6 [label="pixel154 <= 0.5\ngini = 0.219\nsamples = 1352\nvalue = [16.0, 3.0, 25.0, 16.0, 19.0, 39.0, 11.0, 1193.0, 2.0\n28.0]\nclass = 7", fillcolor="#ae51e8"] ;
5 -> 6 ;
7 [label="pixel461 <= 21.0\ngini = 0.139\nsamples = 1282\nvalue = [8, 2, 7, 6, 16, 23, 7, 1189, 2, 22]\nclass = 7", fillcolor="#aa48e7"] ;
6 -> 7 ;
8 [label="pixel543 <= 84.5\ngini = 0.085\nsamples = 1240\nvalue = [8, 0, 6, 5, 4, 10, 6, 1186, 0, 15]\nclass = 7", fillcolor="#a742e6"] ;
7 -> 8 ;
9 [label="pixel158 <= 5.0\ngini = 0.055\nsamples = 1219\nvalue = [3, 0, 5, 5, 2, 9, 0, 1185, 0, 10]\nclass = 7", fillcolor="#a63fe6"] ;
8 -> 9 ;
10 [label="gini = 0.041\nsamples = 1210\nvalue = [1, 0, 5, 4, 1, 4, 0, 1185, 0, 10]\nclass = 7", fillcolor="#a53de6"] ;
9 -> 10 ;
11 [label="gini = 0.617\nsamples = 9\nvalue = [2, 0, 0, 1, 1, 5, 0, 0, 0, 0]\nclass = 5", fillcolor="#aad5f4"] ;
9 -> 11 ;
12 [label="pixel387 <= 171.0\ngini = 0.789\nsamples = 21\nvalue = [5, 0, 1, 0, 2, 1, 6, 1, 0, 5]\nclass = 6", fillcolor="#f3f3fd"] ;
8 -> 12 ;
13 [label="gini = 0.734\nsamples = 16\nvalue = [0, 0, 1, 0, 2, 1, 6, 1, 0, 5]\nclass = 6", fillcolor="#ededfd"] ;
12 -> 13 ;
14 [label="gini = 0.0\nsamples = 5\nvalue = [5, 0, 0, 0, 0, 0, 0, 0, 0, 0]\nclass = 0", fillcolor="#e58139"] ;
12 -> 14 ;
15 [label="pixel438 <= 42.0\ngini = 0.783\nsamples = 42\nvalue = [0, 2, 1, 1, 12, 13, 1, 3, 2, 7]\nclass = 5", fillcolor="#f8fcfe"] ;
7 -> 15 ;
16 [label="pixel351 <= 15.0\ngini = 0.394\nsamples = 17\nvalue = [0, 2, 0, 1, 0, 13, 1, 0, 0, 0]\nclass = 5", fillcolor="#6eb7ec"] ;
15 -> 16 ;
17 [label="gini = 0.0\nsamples = 13\nvalue = [0, 0, 0, 0, 0, 13, 0, 0, 0, 0]\nclass = 5", fillcolor="#399de5"] ;
16 -> 17 ;
18 [label="gini = 0.625\nsamples = 4\nvalue = [0, 2, 0, 1, 0, 0, 1, 0, 0, 0]\nclass = 1", fillcolor="#f5f6bd"] ;
16 -> 18 ;
19 [label="pixel461 <= 213.5\ngini = 0.669\nsamples = 25\nvalue = [0.0, 0.0, 1.0, 0.0, 12.0, 0.0, 0.0, 3.0, 2.0, 7.0]\nclass = 4", fillcolor="#c8f8ef"] ;
15 -> 19 ;
20 [label="gini = 0.66\nsamples = 10\nvalue = [0, 0, 1, 0, 0, 0, 0, 2, 2, 5]\nclass = 9", fillcolor="#f5b5c0"] ;
19 -> 20 ;
21 [label="gini = 0.338\nsamples = 15\nvalue = [0, 0, 0, 0, 12, 0, 0, 1, 0, 2]\nclass = 4", fillcolor="#67ebd2"] ;
19 -> 21 ;
22 [label="pixel270 <= 30.5\ngini = 0.832\nsamples = 70\nvalue = [8, 1, 18, 10, 3, 16, 4, 4, 0, 6]\nclass = 2", fillcolor="#fafef8"] ;
6 -> 22 ;
23 [label="pixel485 <= 16.5\ngini = 0.801\nsamples = 40\nvalue = [6, 1, 1, 7, 3, 14, 4, 1, 0, 3]\nclass = 5", fillcolor="#d5eaf9"] ;
22 -> 23 ;
24 [label="pixel148 <= 87.0\ngini = 0.704\nsamples = 30\nvalue = [0, 1, 0, 7, 3, 14, 1, 1, 0, 3]\nclass = 5", fillcolor="#c3e1f7"] ;
23 -> 24 ;
25 [label="gini = 0.646\nsamples = 25\nvalue = [0.0, 1.0, 0.0, 2.0, 3.0, 14.0, 1.0, 1.0, 0.0, 3.0]\nclass = 5", fillcolor="#9ccef2"] ;
24 -> 25 ;
26 [label="gini = 0.0\nsamples = 5\nvalue = [0, 0, 0, 5, 0, 0, 0, 0, 0, 0]\nclass = 3", fillcolor="#39e55e"] ;
24 -> 26 ;
27 [label="pixel214 <= 3.0\ngini = 0.54\nsamples = 10\nvalue = [6, 0, 1, 0, 0, 0, 3, 0, 0, 0]\nclass = 0", fillcolor="#f4c9aa"] ;
23 -> 27 ;
28 [label="gini = 0.375\nsamples = 4\nvalue = [0, 0, 1, 0, 0, 0, 3, 0, 0, 0]\nclass = 6", fillcolor="#7d7bee"] ;
27 -> 28 ;
29 [label="gini = 0.0\nsamples = 6\nvalue = [6, 0, 0, 0, 0, 0, 0, 0, 0, 0]\nclass = 0", fillcolor="#e58139"] ;
27 -> 29 ;
30 [label="pixel628 <= 64.0\ngini = 0.64\nsamples = 30\nvalue = [2, 0, 17, 3, 0, 2, 0, 3, 0, 3]\nclass = 2", fillcolor="#bbf298"] ;
22 -> 30 ;
31 [label="pixel323 <= 31.0\ngini = 0.816\nsamples = 14\nvalue = [1, 0, 3, 3, 0, 2, 0, 3, 0, 2]\nclass = 2", fillcolor="#ffffff"] ;
30 -> 31 ;
32 [label="gini = 0.777\nsamples = 11\nvalue = [1, 0, 3, 0, 0, 2, 0, 3, 0, 2]\nclass = 2", fillcolor="#ffffff"] ;
31 -> 32 ;
33 [label="gini = 0.0\nsamples = 3\nvalue = [0, 0, 0, 3, 0, 0, 0, 0, 0, 0]\nclass = 3", fillcolor="#39e55e"] ;
31 -> 33 ;
34 [label="pixel522 <= 1.0\ngini = 0.227\nsamples = 16\nvalue = [1, 0, 14, 0, 0, 0, 0, 0, 0, 1]\nclass = 2", fillcolor="#8de853"] ;
30 -> 34 ;
35 [label="gini = 0.5\nsamples = 2\nvalue = [1, 0, 0, 0, 0, 0, 0, 0, 0, 1]\nclass = 0", fillcolor="#ffffff"] ;
34 -> 35 ;
36 [label="gini = 0.0\nsamples = 14\nvalue = [0, 0, 14, 0, 0, 0, 0, 0, 0, 0]\nclass = 2", fillcolor="#7be539"] ;
34 -> 36 ;
37 [label="pixel438 <= 2.0\ngini = 0.48\nsamples = 170\nvalue = [121, 0, 10, 2, 5, 9, 5, 10, 0, 8]\nclass = 0", fillcolor="#eda876"] ;
5 -> 37 ;
38 [label="pixel483 <= 0.5\ngini = 0.271\nsamples = 134\nvalue = [114, 0, 1, 0, 2, 7, 2, 6, 0, 2]\nclass = 0", fillcolor="#e99558"] ;
37 -> 38 ;
39 [label="pixel330 <= 62.5\ngini = 0.609\nsamples = 16\nvalue = [7, 0, 1, 0, 0, 7, 1, 0, 0, 0]\nclass = 0", fillcolor="#ffffff"] ;
38 -> 39 ;
40 [label="pixel551 <= 32.5\ngini = 0.48\nsamples = 10\nvalue = [1, 0, 1, 0, 0, 7, 1, 0, 0, 0]\nclass = 5", fillcolor="#7bbeee"] ;
39 -> 40 ;
41 [label="gini = 0.0\nsamples = 7\nvalue = [0, 0, 0, 0, 0, 7, 0, 0, 0, 0]\nclass = 5", fillcolor="#399de5"] ;
40 -> 41 ;
42 [label="gini = 0.667\nsamples = 3\nvalue = [1, 0, 1, 0, 0, 0, 1, 0, 0, 0]\nclass = 0", fillcolor="#ffffff"] ;
40 -> 42 ;
43 [label="gini = 0.0\nsamples = 6\nvalue = [6, 0, 0, 0, 0, 0, 0, 0, 0, 0]\nclass = 0", fillcolor="#e58139"] ;
39 -> 43 ;
44 [label="pixel718 <= 39.0\ngini = 0.175\nsamples = 118\nvalue = [107, 0, 0, 0, 2, 0, 1, 6, 0, 2]\nclass = 0", fillcolor="#e88d4c"] ;
38 -> 44 ;
45 [label="pixel692 <= 117.0\ngini = 0.119\nsamples = 113\nvalue = [106, 0, 0, 0, 2, 0, 1, 2, 0, 2]\nclass = 0", fillcolor="#e78945"] ;
44 -> 45 ;
46 [label="gini = 0.055\nsamples = 108\nvalue = [105, 0, 0, 0, 0, 0, 1, 1, 0, 1]\nclass = 0", fillcolor="#e6853f"] ;
45 -> 46 ;
47 [label="gini = 0.72\nsamples = 5\nvalue = [1, 0, 0, 0, 2, 0, 0, 1, 0, 1]\nclass = 4", fillcolor="#cef8f0"] ;
45 -> 47 ;
48 [label="pixel638 <= 6.0\ngini = 0.32\nsamples = 5\nvalue = [1, 0, 0, 0, 0, 0, 0, 4, 0, 0]\nclass = 7", fillcolor="#ba6aec"] ;
44 -> 48 ;
49 [label="gini = 0.0\nsamples = 4\nvalue = [0, 0, 0, 0, 0, 0, 0, 4, 0, 0]\nclass = 7", fillcolor="#a339e5"] ;
48 -> 49 ;
50 [label="gini = 0.0\nsamples = 1\nvalue = [1, 0, 0, 0, 0, 0, 0, 0, 0, 0]\nclass = 0", fillcolor="#e58139"] ;
48 -> 50 ;
51 [label="pixel657 <= 149.0\ngini = 0.84\nsamples = 36\nvalue = [7, 0, 9, 2, 3, 2, 3, 4, 0, 6]\nclass = 2", fillcolor="#f6fdf1"] ;
37 -> 51 ;
52 [label="pixel567 <= 13.5\ngini = 0.801\nsamples = 28\nvalue = [0, 0, 9, 1, 3, 2, 3, 4, 0, 6]\nclass = 2", fillcolor="#edfbe4"] ;
51 -> 52 ;
53 [label="pixel270 <= 107.5\ngini = 0.742\nsamples = 16\nvalue = [0, 0, 0, 0, 3, 1, 2, 4, 0, 6]\nclass = 9", fillcolor="#fbdee3"] ;
52 -> 53 ;
54 [label="gini = 0.653\nsamples = 12\nvalue = [0, 0, 0, 0, 3, 1, 2, 0, 0, 6]\nclass = 9", fillcolor="#f6bdc7"] ;
53 -> 54 ;
55 [label="gini = 0.0\nsamples = 4\nvalue = [0, 0, 0, 0, 0, 0, 0, 4, 0, 0]\nclass = 7", fillcolor="#a339e5"] ;
53 -> 55 ;
56 [label="pixel574 <= 41.5\ngini = 0.417\nsamples = 12\nvalue = [0, 0, 9, 1, 0, 1, 1, 0, 0, 0]\nclass = 2", fillcolor="#9fec6f"] ;
52 -> 56 ;
57 [label="gini = 0.667\nsamples = 3\nvalue = [0, 0, 0, 1, 0, 1, 1, 0, 0, 0]\nclass = 3", fillcolor="#ffffff"] ;
56 -> 57 ;
58 [label="gini = 0.0\nsamples = 9\nvalue = [0, 0, 9, 0, 0, 0, 0, 0, 0, 0]\nclass = 2", fillcolor="#7be539"] ;
56 -> 58 ;
59 [label="pixel511 <= 35.0\ngini = 0.219\nsamples = 8\nvalue = [7, 0, 0, 1, 0, 0, 0, 0, 0, 0]\nclass = 0", fillcolor="#e99355"] ;
51 -> 59 ;
60 [label="gini = 0.0\nsamples = 1\nvalue = [0, 0, 0, 1, 0, 0, 0, 0, 0, 0]\nclass = 3", fillcolor="#39e55e"] ;
59 -> 60 ;
61 [label="gini = 0.0\nsamples = 7\nvalue = [7, 0, 0, 0, 0, 0, 0, 0, 0, 0]\nclass = 0", fillcolor="#e58139"] ;
59 -> 61 ;
62 [label="pixel354 <= 27.5\ngini = 0.79\nsamples = 467\nvalue = [17, 16, 5, 41, 54, 144, 19, 24, 10, 137]\nclass = 5", fillcolor="#fbfdfe"] ;
4 -> 62 ;
63 [label="pixel356 <= 33.0\ngini = 0.685\nsamples = 228\nvalue = [13, 16, 4, 22, 10, 122, 16, 11, 6, 8]\nclass = 5", fillcolor="#9fcff2"] ;
62 -> 63 ;
64 [label="pixel322 <= 138.0\ngini = 0.577\nsamples = 193\nvalue = [11, 16, 0, 22, 1, 121, 15, 2, 3, 2]\nclass = 5", fillcolor="#8cc6f0"] ;
63 -> 64 ;
65 [label="pixel126 <= 11.5\ngini = 0.324\nsamples = 116\nvalue = [4, 2, 0, 1, 1, 95, 6, 2, 3, 2]\nclass = 5", fillcolor="#5fb0ea"] ;
64 -> 65 ;
66 [label="pixel388 <= 168.0\ngini = 0.251\nsamples = 110\nvalue = [4, 2, 0, 1, 1, 95, 0, 2, 3, 2]\nclass = 5", fillcolor="#55abe9"] ;
65 -> 66 ;
67 [label="gini = 0.195\nsamples = 106\nvalue = [0, 2, 0, 1, 1, 95, 0, 2, 3, 2]\nclass = 5", fillcolor="#4ea7e8"] ;
66 -> 67 ;
68 [label="gini = 0.0\nsamples = 4\nvalue = [4, 0, 0, 0, 0, 0, 0, 0, 0, 0]\nclass = 0", fillcolor="#e58139"] ;
66 -> 68 ;
69 [label="gini = 0.0\nsamples = 6\nvalue = [0, 0, 0, 0, 0, 0, 6, 0, 0, 0]\nclass = 6", fillcolor="#3c39e5"] ;
65 -> 69 ;
70 [label="pixel179 <= 101.0\ngini = 0.757\nsamples = 77\nvalue = [7, 14, 0, 21, 0, 26, 9, 0, 0, 0]\nclass = 5", fillcolor="#edf6fd"] ;
64 -> 70 ;
71 [label="pixel242 <= 12.0\ngini = 0.717\nsamples = 60\nvalue = [7, 14, 0, 4, 0, 26, 9, 0, 0, 0]\nclass = 5", fillcolor="#cbe5f8"] ;
70 -> 71 ;
72 [label="gini = 0.635\nsamples = 28\nvalue = [0, 14, 0, 1, 0, 5, 8, 0, 0, 0]\nclass = 1", fillcolor="#f6f7c4"] ;
71 -> 72 ;
73 [label="gini = 0.512\nsamples = 32\nvalue = [7, 0, 0, 3, 0, 21, 1, 0, 0, 0]\nclass = 5", fillcolor="#90c8f0"] ;
71 -> 73 ;
74 [label="gini = 0.0\nsamples = 17\nvalue = [0, 0, 0, 17, 0, 0, 0, 0, 0, 0]\nclass = 3", fillcolor="#39e55e"] ;
70 -> 74 ;
75 [label="pixel297 <= 125.0\ngini = 0.813\nsamples = 35\nvalue = [2, 0, 4, 0, 9, 1, 1, 9, 3, 6]\nclass = 4", fillcolor="#ffffff"] ;
63 -> 75 ;
76 [label="pixel214 <= 59.5\ngini = 0.796\nsamples = 27\nvalue = [2, 0, 4, 0, 9, 1, 1, 1, 3, 6]\nclass = 4", fillcolor="#e3fbf7"] ;
75 -> 76 ;
77 [label="pixel129 <= 56.0\ngini = 0.403\nsamples = 12\nvalue = [0, 0, 2, 0, 9, 0, 1, 0, 0, 0]\nclass = 4", fillcolor="#74edd6"] ;
76 -> 77 ;
78 [label="gini = 0.0\nsamples = 9\nvalue = [0, 0, 0, 0, 9, 0, 0, 0, 0, 0]\nclass = 4", fillcolor="#39e5c5"] ;
77 -> 78 ;
79 [label="gini = 0.444\nsamples = 3\nvalue = [0, 0, 2, 0, 0, 0, 1, 0, 0, 0]\nclass = 2", fillcolor="#bdf29c"] ;
77 -> 79 ;
80 [label="pixel407 <= 4.5\ngini = 0.756\nsamples = 15\nvalue = [2, 0, 2, 0, 0, 1, 0, 1, 3, 6]\nclass = 9", fillcolor="#f8ced5"] ;
76 -> 80 ;
81 [label="gini = 0.8\nsamples = 10\nvalue = [2, 0, 2, 0, 0, 1, 0, 1, 3, 1]\nclass = 8", fillcolor="#fce6f7"] ;
80 -> 81 ;
82 [label="gini = 0.0\nsamples = 5\nvalue = [0, 0, 0, 0, 0, 0, 0, 0, 0, 5]\nclass = 9", fillcolor="#e53958"] ;
80 -> 82 ;
83 [label="gini = 0.0\nsamples = 8\nvalue = [0, 0, 0, 0, 0, 0, 0, 8, 0, 0]\nclass = 7", fillcolor="#a339e5"] ;
75 -> 83 ;
84 [label="pixel238 <= 8.5\ngini = 0.656\nsamples = 239\nvalue = [4.0, 0.0, 1.0, 19.0, 44.0, 22.0, 3.0, 13.0, 4.0\n129.0]\nclass = 9", fillcolor="#f4a9b6"] ;
62 -> 84 ;
85 [label="pixel182 <= 65.0\ngini = 0.694\nsamples = 79\nvalue = [1, 0, 1, 14, 39, 10, 1, 2, 2, 9]\nclass = 4", fillcolor="#b3f5e9"] ;
84 -> 85 ;
86 [label="pixel321 <= 13.0\ngini = 0.357\nsamples = 49\nvalue = [0.0, 0.0, 0.0, 1.0, 39.0, 4.0, 1.0, 2.0, 1.0, 1.0]\nclass = 4", fillcolor="#65ebd2"] ;
85 -> 86 ;
87 [label="pixel498 <= 106.0\ngini = 0.136\nsamples = 42\nvalue = [0, 0, 0, 0, 39, 0, 1, 1, 0, 1]\nclass = 4", fillcolor="#47e7c9"] ;
86 -> 87 ;
88 [label="gini = 0.049\nsamples = 40\nvalue = [0, 0, 0, 0, 39, 0, 0, 0, 0, 1]\nclass = 4", fillcolor="#3ee6c6"] ;
87 -> 88 ;
89 [label="gini = 0.5\nsamples = 2\nvalue = [0, 0, 0, 0, 0, 0, 1, 1, 0, 0]\nclass = 6", fillcolor="#ffffff"] ;
87 -> 89 ;
90 [label="pixel321 <= 214.0\ngini = 0.612\nsamples = 7\nvalue = [0, 0, 0, 1, 0, 4, 0, 1, 1, 0]\nclass = 5", fillcolor="#9ccef2"] ;
86 -> 90 ;
91 [label="gini = 0.0\nsamples = 4\nvalue = [0, 0, 0, 0, 0, 4, 0, 0, 0, 0]\nclass = 5", fillcolor="#399de5"] ;
90 -> 91 ;
92 [label="gini = 0.667\nsamples = 3\nvalue = [0, 0, 0, 1, 0, 0, 0, 1, 1, 0]\nclass = 3", fillcolor="#ffffff"] ;
90 -> 92 ;
93 [label="pixel624 <= 8.0\ngini = 0.698\nsamples = 30\nvalue = [1, 0, 1, 13, 0, 6, 0, 0, 1, 8]\nclass = 3", fillcolor="#d2f9da"] ;
85 -> 93 ;
94 [label="pixel326 <= 2.5\ngini = 0.704\nsamples = 19\nvalue = [1, 0, 1, 2, 0, 6, 0, 0, 1, 8]\nclass = 9", fillcolor="#fbe1e5"] ;
93 -> 94 ;
95 [label="gini = 0.0\nsamples = 6\nvalue = [0, 0, 0, 0, 0, 6, 0, 0, 0, 0]\nclass = 5", fillcolor="#399de5"] ;
94 -> 95 ;
96 [label="gini = 0.58\nsamples = 13\nvalue = [1, 0, 1, 2, 0, 0, 0, 0, 1, 8]\nclass = 9", fillcolor="#f193a4"] ;
94 -> 96 ;
97 [label="gini = 0.0\nsamples = 11\nvalue = [0, 0, 0, 11, 0, 0, 0, 0, 0, 0]\nclass = 3", fillcolor="#39e55e"] ;
93 -> 97 ;
98 [label="pixel349 <= 160.5\ngini = 0.425\nsamples = 160\nvalue = [3, 0, 0, 5, 5, 12, 2, 11, 2, 120]\nclass = 9", fillcolor="#ec6f85"] ;
84 -> 98 ;
99 [label="pixel204 <= 21.0\ngini = 0.265\nsamples = 137\nvalue = [0, 0, 0, 4, 4, 5, 0, 7, 0, 117]\nclass = 9", fillcolor="#e95772"] ;
98 -> 99 ;
100 [label="pixel652 <= 79.0\ngini = 0.201\nsamples = 130\nvalue = [0, 0, 0, 4, 4, 4, 0, 2, 0, 116]\nclass = 9", fillcolor="#e84f6b"] ;
99 -> 100 ;
101 [label="gini = 0.137\nsamples = 125\nvalue = [0, 0, 0, 0, 4, 3, 0, 2, 0, 116]\nclass = 9", fillcolor="#e74864"] ;
100 -> 101 ;
102 [label="gini = 0.32\nsamples = 5\nvalue = [0, 0, 0, 4, 0, 1, 0, 0, 0, 0]\nclass = 3", fillcolor="#6aec86"] ;
100 -> 102 ;
103 [label="pixel580 <= 135.0\ngini = 0.449\nsamples = 7\nvalue = [0, 0, 0, 0, 0, 1, 0, 5, 0, 1]\nclass = 7", fillcolor="#c27bee"] ;
99 -> 103 ;
104 [label="gini = 0.0\nsamples = 5\nvalue = [0, 0, 0, 0, 0, 0, 0, 5, 0, 0]\nclass = 7", fillcolor="#a339e5"] ;
103 -> 104 ;
105 [label="gini = 0.5\nsamples = 2\nvalue = [0, 0, 0, 0, 0, 1, 0, 0, 0, 1]\nclass = 5", fillcolor="#ffffff"] ;
103 -> 105 ;
106 [label="pixel407 <= 56.5\ngini = 0.824\nsamples = 23\nvalue = [3, 0, 0, 1, 1, 7, 2, 4, 2, 3]\nclass = 5", fillcolor="#e0f0fb"] ;
98 -> 106 ;
107 [label="pixel431 <= 15.0\ngini = 0.66\nsamples = 10\nvalue = [3, 0, 0, 0, 0, 0, 0, 4, 0, 3]\nclass = 7", fillcolor="#f2e3fb"] ;
106 -> 107 ;
108 [label="gini = 0.5\nsamples = 6\nvalue = [3, 0, 0, 0, 0, 0, 0, 0, 0, 3]\nclass = 0", fillcolor="#ffffff"] ;
107 -> 108 ;
109 [label="gini = 0.0\nsamples = 4\nvalue = [0, 0, 0, 0, 0, 0, 0, 4, 0, 0]\nclass = 7", fillcolor="#a339e5"] ;
107 -> 109 ;
110 [label="pixel574 <= 67.0\ngini = 0.651\nsamples = 13\nvalue = [0, 0, 0, 1, 1, 7, 2, 0, 2, 0]\nclass = 5", fillcolor="#a5d2f3"] ;
106 -> 110 ;
111 [label="gini = 0.219\nsamples = 8\nvalue = [0, 0, 0, 1, 0, 7, 0, 0, 0, 0]\nclass = 5", fillcolor="#55abe9"] ;
110 -> 111 ;
112 [label="gini = 0.64\nsamples = 5\nvalue = [0, 0, 0, 0, 1, 0, 2, 0, 2, 0]\nclass = 6", fillcolor="#ffffff"] ;
110 -> 112 ;
113 [label="pixel572 <= 43.5\ngini = 0.834\nsamples = 1305\nvalue = [241.0, 1.0, 73.0, 19.0, 291.0, 146.0, 273.0, 54.0\n22.0, 185.0]\nclass = 4", fillcolor="#fcfffe"] ;
3 -> 113 ;
114 [label="pixel467 <= 0.5\ngini = 0.777\nsamples = 746\nvalue = [26.0, 0.0, 40.0, 12.0, 273.0, 124.0, 44.0, 49.0, 12.0\n166.0]\nclass = 4", fillcolor="#dafaf4"] ;
113 -> 114 ;
115 [label="pixel354 <= 10.0\ngini = 0.629\nsamples = 188\nvalue = [13.0, 0.0, 9.0, 10.0, 8.0, 111.0, 12.0, 4.0, 9.0\n12.0]\nclass = 5", fillcolor="#90c8f0"] ;
114 -> 115 ;
116 [label="pixel526 <= 7.0\ngini = 0.377\nsamples = 133\nvalue = [11, 0, 7, 1, 1, 104, 5, 2, 0, 2]\nclass = 5", fillcolor="#68b4eb"] ;
115 -> 116 ;
117 [label="pixel545 <= 253.5\ngini = 0.18\nsamples = 115\nvalue = [2, 0, 1, 1, 1, 104, 4, 1, 0, 1]\nclass = 5", fillcolor="#4da7e8"] ;
116 -> 117 ;
118 [label="pixel471 <= 37.0\ngini = 0.122\nsamples = 110\nvalue = [2, 0, 1, 1, 1, 103, 0, 1, 0, 1]\nclass = 5", fillcolor="#46a3e7"] ;
117 -> 118 ;
119 [label="gini = 0.073\nsamples = 107\nvalue = [0.0, 0.0, 1.0, 1.0, 1.0, 103.0, 0.0, 0.0, 0.0, 1.0]\nclass = 5", fillcolor="#40a1e6"] ;
118 -> 119 ;
120 [label="gini = 0.444\nsamples = 3\nvalue = [2, 0, 0, 0, 0, 0, 0, 1, 0, 0]\nclass = 0", fillcolor="#f2c09c"] ;
118 -> 120 ;
121 [label="pixel515 <= 5.5\ngini = 0.32\nsamples = 5\nvalue = [0, 0, 0, 0, 0, 1, 4, 0, 0, 0]\nclass = 6", fillcolor="#6d6aec"] ;
117 -> 121 ;
122 [label="gini = 0.0\nsamples = 1\nvalue = [0, 0, 0, 0, 0, 1, 0, 0, 0, 0]\nclass = 5", fillcolor="#399de5"] ;
121 -> 122 ;
123 [label="gini = 0.0\nsamples = 4\nvalue = [0, 0, 0, 0, 0, 0, 4, 0, 0, 0]\nclass = 6", fillcolor="#3c39e5"] ;
121 -> 123 ;
124 [label="pixel343 <= 126.5\ngini = 0.63\nsamples = 18\nvalue = [9, 0, 6, 0, 0, 0, 1, 1, 0, 1]\nclass = 0", fillcolor="#f8e0ce"] ;
116 -> 124 ;
125 [label="pixel526 <= 124.0\ngini = 0.6\nsamples = 10\nvalue = [1, 0, 6, 0, 0, 0, 1, 1, 0, 1]\nclass = 2", fillcolor="#b6f191"] ;
124 -> 125 ;
126 [label="gini = 0.75\nsamples = 4\nvalue = [1, 0, 0, 0, 0, 0, 1, 1, 0, 1]\nclass = 0", fillcolor="#ffffff"] ;
125 -> 126 ;
127 [label="gini = 0.0\nsamples = 6\nvalue = [0, 0, 6, 0, 0, 0, 0, 0, 0, 0]\nclass = 2", fillcolor="#7be539"] ;
125 -> 127 ;
128 [label="gini = 0.0\nsamples = 8\nvalue = [8, 0, 0, 0, 0, 0, 0, 0, 0, 0]\nclass = 0", fillcolor="#e58139"] ;
124 -> 128 ;
129 [label="pixel568 <= 108.5\ngini = 0.861\nsamples = 55\nvalue = [2.0, 0.0, 2.0, 9.0, 7.0, 7.0, 7.0, 2.0, 9.0, 10.0]\nclass = 9", fillcolor="#fefbfb"] ;
115 -> 129 ;
130 [label="pixel685 <= 111.0\ngini = 0.834\nsamples = 45\nvalue = [1, 0, 2, 9, 7, 7, 7, 2, 0, 10]\nclass = 9", fillcolor="#fefafa"] ;
129 -> 130 ;
131 [label="pixel241 <= 4.0\ngini = 0.812\nsamples = 36\nvalue = [1, 0, 2, 1, 7, 6, 7, 2, 0, 10]\nclass = 9", fillcolor="#fcebee"] ;
130 -> 131 ;
132 [label="gini = 0.748\nsamples = 21\nvalue = [1, 0, 1, 1, 7, 3, 7, 1, 0, 0]\nclass = 4", fillcolor="#ffffff"] ;
131 -> 132 ;
133 [label="gini = 0.507\nsamples = 15\nvalue = [0, 0, 1, 0, 0, 3, 0, 1, 0, 10]\nclass = 9", fillcolor="#f08c9e"] ;
131 -> 133 ;
134 [label="pixel319 <= 127.0\ngini = 0.198\nsamples = 9\nvalue = [0, 0, 0, 8, 0, 1, 0, 0, 0, 0]\nclass = 3", fillcolor="#52e872"] ;
130 -> 134 ;
135 [label="gini = 0.0\nsamples = 8\nvalue = [0, 0, 0, 8, 0, 0, 0, 0, 0, 0]\nclass = 3", fillcolor="#39e55e"] ;
134 -> 135 ;
136 [label="gini = 0.0\nsamples = 1\nvalue = [0, 0, 0, 0, 0, 1, 0, 0, 0, 0]\nclass = 5", fillcolor="#399de5"] ;
134 -> 136 ;
137 [label="pixel324 <= 113.5\ngini = 0.18\nsamples = 10\nvalue = [1, 0, 0, 0, 0, 0, 0, 0, 9, 0]\nclass = 8", fillcolor="#e84fc7"] ;
129 -> 137 ;
138 [label="gini = 0.0\nsamples = 9\nvalue = [0, 0, 0, 0, 0, 0, 0, 0, 9, 0]\nclass = 8", fillcolor="#e539c0"] ;
137 -> 138 ;
139 [label="gini = 0.0\nsamples = 1\nvalue = [1, 0, 0, 0, 0, 0, 0, 0, 0, 0]\nclass = 0", fillcolor="#e58139"] ;
137 -> 139 ;
140 [label="pixel212 <= 8.0\ngini = 0.684\nsamples = 558\nvalue = [13.0, 0.0, 31.0, 2.0, 265.0, 13.0, 32.0, 45.0, 3.0\n154.0]\nclass = 4", fillcolor="#c9f8ef"] ;
114 -> 140 ;
141 [label="pixel267 <= 68.0\ngini = 0.443\nsamples = 305\nvalue = [4, 0, 16, 0, 224, 1, 30, 14, 0, 16]\nclass = 4", fillcolor="#73edd6"] ;
140 -> 141 ;
142 [label="pixel99 <= 26.5\ngini = 0.307\nsamples = 267\nvalue = [1, 0, 10, 0, 220, 1, 29, 0, 0, 6]\nclass = 4", fillcolor="#60ead0"] ;
141 -> 142 ;
143 [label="pixel94 <= 91.5\ngini = 0.193\nsamples = 242\nvalue = [1, 0, 6, 0, 217, 1, 11, 0, 0, 6]\nclass = 4", fillcolor="#4ee8cb"] ;
142 -> 143 ;
144 [label="gini = 0.146\nsamples = 234\nvalue = [1, 0, 6, 0, 216, 1, 4, 0, 0, 6]\nclass = 4", fillcolor="#49e7ca"] ;
143 -> 144 ;
145 [label="gini = 0.219\nsamples = 8\nvalue = [0, 0, 0, 0, 1, 0, 7, 0, 0, 0]\nclass = 6", fillcolor="#5855e9"] ;
143 -> 145 ;
146 [label="pixel485 <= 150.0\ngini = 0.442\nsamples = 25\nvalue = [0, 0, 4, 0, 3, 0, 18, 0, 0, 0]\nclass = 6", fillcolor="#7d7bee"] ;
142 -> 146 ;
147 [label="gini = 0.0\nsamples = 18\nvalue = [0, 0, 0, 0, 0, 0, 18, 0, 0, 0]\nclass = 6", fillcolor="#3c39e5"] ;
146 -> 147 ;
148 [label="gini = 0.49\nsamples = 7\nvalue = [0, 0, 4, 0, 3, 0, 0, 0, 0, 0]\nclass = 2", fillcolor="#def8ce"] ;
146 -> 148 ;
149 [label="pixel689 <= 135.5\ngini = 0.752\nsamples = 38\nvalue = [3, 0, 6, 0, 4, 0, 1, 14, 0, 10]\nclass = 7", fillcolor="#f2e3fb"] ;
141 -> 149 ;
150 [label="pixel294 <= 232.5\ngini = 0.773\nsamples = 28\nvalue = [3, 0, 6, 0, 4, 0, 1, 4, 0, 10]\nclass = 9", fillcolor="#fadbe1"] ;
149 -> 150 ;
151 [label="gini = 0.292\nsamples = 12\nvalue = [0, 0, 1, 0, 1, 0, 0, 0, 0, 10]\nclass = 9", fillcolor="#ea5d76"] ;
150 -> 151 ;
152 [label="gini = 0.766\nsamples = 16\nvalue = [3, 0, 5, 0, 3, 0, 1, 4, 0, 0]\nclass = 2", fillcolor="#f4fdee"] ;
150 -> 152 ;
153 [label="gini = 0.0\nsamples = 10\nvalue = [0, 0, 0, 0, 0, 0, 0, 10, 0, 0]\nclass = 7", fillcolor="#a339e5"] ;
149 -> 153 ;
154 [label="pixel157 <= 1.5\ngini = 0.654\nsamples = 253\nvalue = [9.0, 0.0, 15.0, 2.0, 41.0, 12.0, 2.0, 31.0, 3.0\n138.0]\nclass = 9", fillcolor="#f3a4b3"] ;
140 -> 154 ;
155 [label="pixel375 <= 142.5\ngini = 0.48\nsamples = 190\nvalue = [3.0, 0.0, 5.0, 0.0, 12.0, 7.0, 0.0, 29.0, 1.0, 133.0]\nclass = 9", fillcolor="#ee7f93"] ;
154 -> 155 ;
156 [label="pixel229 <= 53.5\ngini = 0.356\nsamples = 155\nvalue = [1, 0, 4, 0, 5, 4, 0, 17, 1, 123]\nclass = 9", fillcolor="#eb677f"] ;
155 -> 156 ;
157 [label="gini = 0.319\nsamples = 150\nvalue = [1.0, 0.0, 4.0, 0.0, 5.0, 4.0, 0.0, 12.0, 1.0, 123.0]\nclass = 9", fillcolor="#ea6079"] ;
156 -> 157 ;
158 [label="gini = 0.0\nsamples = 5\nvalue = [0, 0, 0, 0, 0, 0, 0, 5, 0, 0]\nclass = 7", fillcolor="#a339e5"] ;
156 -> 158 ;
159 [label="pixel490 <= 2.5\ngini = 0.749\nsamples = 35\nvalue = [2, 0, 1, 0, 7, 3, 0, 12, 0, 10]\nclass = 7", fillcolor="#f8effd"] ;
155 -> 159 ;
160 [label="gini = 0.471\nsamples = 17\nvalue = [2, 0, 0, 0, 0, 1, 0, 12, 0, 2]\nclass = 7", fillcolor="#c27bee"] ;
159 -> 160 ;
161 [label="gini = 0.636\nsamples = 18\nvalue = [0, 0, 1, 0, 7, 2, 0, 0, 0, 8]\nclass = 9", fillcolor="#fdedf0"] ;
159 -> 161 ;
162 [label="pixel601 <= 12.0\ngini = 0.737\nsamples = 63\nvalue = [6, 0, 10, 2, 29, 5, 2, 2, 2, 5]\nclass = 4", fillcolor="#b8f6ea"] ;
154 -> 162 ;
163 [label="pixel181 <= 105.0\ngini = 0.498\nsamples = 42\nvalue = [0, 0, 1, 1, 29, 5, 0, 1, 1, 4]\nclass = 4", fillcolor="#7feed9"] ;
162 -> 163 ;
164 [label="gini = 0.181\nsamples = 31\nvalue = [0, 0, 0, 1, 28, 0, 0, 0, 1, 1]\nclass = 4", fillcolor="#4de8cb"] ;
163 -> 164 ;
165 [label="gini = 0.694\nsamples = 11\nvalue = [0, 0, 1, 0, 1, 5, 0, 1, 0, 3]\nclass = 5", fillcolor="#cee6f8"] ;
163 -> 165 ;
166 [label="pixel568 <= 227.0\ngini = 0.717\nsamples = 21\nvalue = [6, 0, 9, 1, 0, 0, 2, 1, 1, 1]\nclass = 2", fillcolor="#e5fad7"] ;
162 -> 166 ;
167 [label="gini = 0.604\nsamples = 15\nvalue = [0, 0, 9, 1, 0, 0, 2, 1, 1, 1]\nclass = 2", fillcolor="#b8f194"] ;
166 -> 167 ;
168 [label="gini = 0.0\nsamples = 6\nvalue = [6, 0, 0, 0, 0, 0, 0, 0, 0, 0]\nclass = 0", fillcolor="#e58139"] ;
166 -> 168 ;
169 [label="pixel271 <= 7.5\ngini = 0.676\nsamples = 559\nvalue = [215, 1, 33, 7, 18, 22, 229, 5, 10, 19]\nclass = 6", fillcolor="#f7f7fe"] ;
113 -> 169 ;
170 [label="pixel661 <= 3.0\ngini = 0.433\nsamples = 297\nvalue = [26.0, 1.0, 15.0, 6.0, 10.0, 12.0, 221.0, 0.0, 4.0\n2.0]\nclass = 6", fillcolor="#7371ec"] ;
169 -> 170 ;
171 [label="pixel245 <= 3.5\ngini = 0.295\nsamples = 250\nvalue = [11, 1, 13, 3, 6, 4, 209, 0, 1, 2]\nclass = 6", fillcolor="#5e5be9"] ;
170 -> 171 ;
172 [label="pixel297 <= 194.5\ngini = 0.22\nsamples = 235\nvalue = [4, 1, 12, 2, 5, 3, 207, 0, 0, 1]\nclass = 6", fillcolor="#5452e8"] ;
171 -> 172 ;
173 [label="pixel585 <= 43.0\ngini = 0.166\nsamples = 227\nvalue = [1, 1, 10, 0, 5, 2, 207, 0, 0, 1]\nclass = 6", fillcolor="#4e4be7"] ;
172 -> 173 ;
174 [label="gini = 0.122\nsamples = 220\nvalue = [1, 1, 5, 0, 5, 2, 206, 0, 0, 0]\nclass = 6", fillcolor="#4946e7"] ;
173 -> 174 ;
175 [label="gini = 0.449\nsamples = 7\nvalue = [0, 0, 5, 0, 0, 0, 1, 0, 0, 1]\nclass = 2", fillcolor="#a7ee7b"] ;
173 -> 175 ;
176 [label="pixel317 <= 4.5\ngini = 0.719\nsamples = 8\nvalue = [3, 0, 2, 2, 0, 1, 0, 0, 0, 0]\nclass = 0", fillcolor="#fbeade"] ;
172 -> 176 ;
177 [label="gini = 0.64\nsamples = 5\nvalue = [0, 0, 2, 2, 0, 1, 0, 0, 0, 0]\nclass = 2", fillcolor="#ffffff"] ;
176 -> 177 ;
178 [label="gini = 0.0\nsamples = 3\nvalue = [3, 0, 0, 0, 0, 0, 0, 0, 0, 0]\nclass = 0", fillcolor="#e58139"] ;
176 -> 178 ;
179 [label="pixel292 <= 58.0\ngini = 0.738\nsamples = 15\nvalue = [7, 0, 1, 1, 1, 1, 2, 0, 1, 1]\nclass = 0", fillcolor="#f5cfb3"] ;
171 -> 179 ;
180 [label="pixel209 <= 28.5\ngini = 0.864\nsamples = 9\nvalue = [1, 0, 1, 1, 1, 1, 2, 0, 1, 1]\nclass = 6", fillcolor="#e7e6fc"] ;
179 -> 180 ;
181 [label="gini = 0.444\nsamples = 3\nvalue = [0, 0, 0, 0, 1, 0, 2, 0, 0, 0]\nclass = 6", fillcolor="#9e9cf2"] ;
180 -> 181 ;
182 [label="gini = 0.833\nsamples = 6\nvalue = [1, 0, 1, 1, 0, 1, 0, 0, 1, 1]\nclass = 0", fillcolor="#ffffff"] ;
180 -> 182 ;
183 [label="gini = 0.0\nsamples = 6\nvalue = [6, 0, 0, 0, 0, 0, 0, 0, 0, 0]\nclass = 0", fillcolor="#e58139"] ;
179 -> 183 ;
184 [label="pixel158 <= 197.5\ngini = 0.787\nsamples = 47\nvalue = [15.0, 0.0, 2.0, 3.0, 4.0, 8.0, 12.0, 0.0, 3.0, 0.0]\nclass = 0", fillcolor="#fdf4ee"] ;
170 -> 184 ;
185 [label="pixel547 <= 5.5\ngini = 0.716\nsamples = 29\nvalue = [14, 0, 2, 3, 4, 3, 2, 0, 1, 0]\nclass = 0", fillcolor="#f5cdb0"] ;
184 -> 185 ;
186 [label="pixel123 <= 102.5\ngini = 0.377\nsamples = 18\nvalue = [14, 0, 2, 0, 0, 0, 1, 0, 1, 0]\nclass = 0", fillcolor="#eca06a"] ;
185 -> 186 ;
187 [label="gini = 0.227\nsamples = 16\nvalue = [14, 0, 0, 0, 0, 0, 1, 0, 1, 0]\nclass = 0", fillcolor="#e89253"] ;
186 -> 187 ;
188 [label="gini = 0.0\nsamples = 2\nvalue = [0, 0, 2, 0, 0, 0, 0, 0, 0, 0]\nclass = 2", fillcolor="#7be539"] ;
186 -> 188 ;
189 [label="pixel301 <= 68.5\ngini = 0.711\nsamples = 11\nvalue = [0, 0, 0, 3, 4, 3, 1, 0, 0, 0]\nclass = 4", fillcolor="#e6fcf8"] ;
185 -> 189 ;
190 [label="gini = 0.612\nsamples = 7\nvalue = [0, 0, 0, 3, 0, 3, 1, 0, 0, 0]\nclass = 3", fillcolor="#ffffff"] ;
189 -> 190 ;
191 [label="gini = 0.0\nsamples = 4\nvalue = [0, 0, 0, 0, 4, 0, 0, 0, 0, 0]\nclass = 4", fillcolor="#39e5c5"] ;
189 -> 191 ;
192 [label="pixel516 <= 155.5\ngini = 0.599\nsamples = 18\nvalue = [1, 0, 0, 0, 0, 5, 10, 0, 2, 0]\nclass = 6", fillcolor="#b4b3f5"] ;
184 -> 192 ;
193 [label="gini = 0.0\nsamples = 5\nvalue = [0, 0, 0, 0, 0, 5, 0, 0, 0, 0]\nclass = 5", fillcolor="#399de5"] ;
192 -> 193 ;
194 [label="pixel628 <= 209.0\ngini = 0.379\nsamples = 13\nvalue = [1, 0, 0, 0, 0, 0, 10, 0, 2, 0]\nclass = 6", fillcolor="#716fec"] ;
192 -> 194 ;
195 [label="gini = 0.0\nsamples = 10\nvalue = [0, 0, 0, 0, 0, 0, 10, 0, 0, 0]\nclass = 6", fillcolor="#3c39e5"] ;
194 -> 195 ;
196 [label="gini = 0.444\nsamples = 3\nvalue = [1, 0, 0, 0, 0, 0, 0, 0, 2, 0]\nclass = 8", fillcolor="#f29ce0"] ;
194 -> 196 ;
197 [label="pixel491 <= 22.0\ngini = 0.466\nsamples = 262\nvalue = [189, 0, 18, 1, 8, 10, 8, 5, 6, 17]\nclass = 0", fillcolor="#eda774"] ;
169 -> 197 ;
198 [label="pixel718 <= 0.5\ngini = 0.25\nsamples = 199\nvalue = [172, 0, 3, 1, 1, 5, 5, 1, 3, 8]\nclass = 0", fillcolor="#e99355"] ;
197 -> 198 ;
199 [label="pixel323 <= 235.0\ngini = 0.204\nsamples = 193\nvalue = [172, 0, 3, 1, 1, 5, 5, 1, 3, 2]\nclass = 0", fillcolor="#e88f4f"] ;
198 -> 199 ;
200 [label="pixel380 <= 150.5\ngini = 0.162\nsamples = 188\nvalue = [172.0, 0.0, 3.0, 0.0, 1.0, 3.0, 3.0, 1.0, 3.0, 2.0]\nclass = 0", fillcolor="#e78c4a"] ;
199 -> 200 ;
201 [label="gini = 0.125\nsamples = 184\nvalue = [172, 0, 3, 0, 1, 3, 2, 1, 0, 2]\nclass = 0", fillcolor="#e78946"] ;
200 -> 201 ;
202 [label="gini = 0.375\nsamples = 4\nvalue = [0, 0, 0, 0, 0, 0, 1, 0, 3, 0]\nclass = 8", fillcolor="#ee7bd5"] ;
200 -> 202 ;
203 [label="pixel604 <= 132.5\ngini = 0.64\nsamples = 5\nvalue = [0, 0, 0, 1, 0, 2, 2, 0, 0, 0]\nclass = 5", fillcolor="#ffffff"] ;
199 -> 203 ;
204 [label="gini = 0.444\nsamples = 3\nvalue = [0, 0, 0, 1, 0, 2, 0, 0, 0, 0]\nclass = 5", fillcolor="#9ccef2"] ;
203 -> 204 ;
205 [label="gini = 0.0\nsamples = 2\nvalue = [0, 0, 0, 0, 0, 0, 2, 0, 0, 0]\nclass = 6", fillcolor="#3c39e5"] ;
203 -> 205 ;
206 [label="gini = 0.0\nsamples = 6\nvalue = [0, 0, 0, 0, 0, 0, 0, 0, 0, 6]\nclass = 9", fillcolor="#e53958"] ;
198 -> 206 ;
207 [label="pixel416 <= 112.5\ngini = 0.823\nsamples = 63\nvalue = [17, 0, 15, 0, 7, 5, 3, 4, 3, 9]\nclass = 0", fillcolor="#fefaf7"] ;
197 -> 207 ;
208 [label="pixel150 <= 30.5\ngini = 0.828\nsamples = 50\nvalue = [4.0, 0.0, 15.0, 0.0, 7.0, 5.0, 3.0, 4.0, 3.0, 9.0]\nclass = 2", fillcolor="#ecfbe2"] ;
207 -> 208 ;
209 [label="pixel185 <= 147.5\ngini = 0.856\nsamples = 37\nvalue = [4, 0, 4, 0, 5, 5, 3, 4, 3, 9]\nclass = 9", fillcolor="#fce6ea"] ;
208 -> 209 ;
210 [label="gini = 0.825\nsamples = 20\nvalue = [2, 0, 2, 0, 4, 5, 2, 4, 1, 0]\nclass = 5", fillcolor="#f3f9fd"] ;
209 -> 210 ;
211 [label="gini = 0.671\nsamples = 17\nvalue = [2, 0, 2, 0, 1, 0, 1, 0, 2, 9]\nclass = 9", fillcolor="#f3a3b1"] ;
209 -> 211 ;
212 [label="pixel521 <= 253.5\ngini = 0.26\nsamples = 13\nvalue = [0, 0, 11, 0, 2, 0, 0, 0, 0, 0]\nclass = 2", fillcolor="#93ea5d"] ;
208 -> 212 ;
213 [label="gini = 0.0\nsamples = 11\nvalue = [0, 0, 11, 0, 0, 0, 0, 0, 0, 0]\nclass = 2", fillcolor="#7be539"] ;
212 -> 213 ;
214 [label="gini = 0.0\nsamples = 2\nvalue = [0, 0, 0, 0, 2, 0, 0, 0, 0, 0]\nclass = 4", fillcolor="#39e5c5"] ;
212 -> 214 ;
215 [label="gini = 0.0\nsamples = 13\nvalue = [13, 0, 0, 0, 0, 0, 0, 0, 0, 0]\nclass = 0", fillcolor="#e58139"] ;
207 -> 215 ;
216 [label="pixel490 <= 48.5\ngini = 0.415\nsamples = 5652\nvalue = [4270, 10, 426, 160, 10, 462, 191, 36, 71, 16]\nclass = 0", fillcolor="#eca36e"] ;
2 -> 216 ;
217 [label="pixel381 <= 2.5\ngini = 0.272\nsamples = 4932\nvalue = [4193.0, 6.0, 112.0, 147.0, 6.0, 264.0, 137.0, 30.0\n21.0, 16.0]\nclass = 0", fillcolor="#e99558"] ;
216 -> 217 ;
218 [label="pixel456 <= 0.5\ngini = 0.158\nsamples = 4446\nvalue = [4076, 2, 79, 66, 5, 111, 70, 27, 2, 8]\nclass = 0", fillcolor="#e78c4a"] ;
217 -> 218 ;
219 [label="pixel325 <= 75.5\ngini = 0.511\nsamples = 861\nvalue = [587, 2, 69, 53, 1, 97, 23, 24, 2, 3]\nclass = 0", fillcolor="#eeae80"] ;
218 -> 219 ;
220 [label="pixel518 <= 14.5\ngini = 0.354\nsamples = 705\nvalue = [562, 2, 62, 6, 1, 22, 21, 24, 2, 3]\nclass = 0", fillcolor="#eb9d65"] ;
219 -> 220 ;
221 [label="pixel150 <= 26.0\ngini = 0.204\nsamples = 605\nvalue = [539, 2, 22, 6, 1, 18, 12, 3, 0, 2]\nclass = 0", fillcolor="#e88f4f"] ;
220 -> 221 ;
222 [label="pixel73 <= 1.0\ngini = 0.14\nsamples = 558\nvalue = [517, 2, 11, 0, 1, 15, 9, 2, 0, 1]\nclass = 0", fillcolor="#e78b48"] ;
221 -> 222 ;
223 [label="gini = 0.118\nsamples = 551\nvalue = [517, 2, 10, 0, 1, 15, 3, 2, 0, 1]\nclass = 0", fillcolor="#e78946"] ;
222 -> 223 ;
224 [label="gini = 0.245\nsamples = 7\nvalue = [0, 0, 1, 0, 0, 0, 6, 0, 0, 0]\nclass = 6", fillcolor="#5d5ae9"] ;
222 -> 224 ;
225 [label="pixel386 <= 108.5\ngini = 0.701\nsamples = 47\nvalue = [22.0, 0.0, 11.0, 6.0, 0.0, 3.0, 3.0, 1.0, 0.0, 1.0]\nclass = 0", fillcolor="#f7d8c2"] ;
221 -> 225 ;
226 [label="gini = 0.726\nsamples = 23\nvalue = [3, 0, 10, 5, 0, 3, 1, 0, 0, 1]\nclass = 2", fillcolor="#daf8c8"] ;
225 -> 226 ;
227 [label="gini = 0.361\nsamples = 24\nvalue = [19, 0, 1, 1, 0, 0, 2, 1, 0, 0]\nclass = 0", fillcolor="#eb9e66"] ;
225 -> 227 ;
228 [label="pixel708 <= 2.0\ngini = 0.733\nsamples = 100\nvalue = [23, 0, 40, 0, 0, 4, 9, 21, 2, 1]\nclass = 2", fillcolor="#e2f9d3"] ;
220 -> 228 ;
229 [label="pixel403 <= 15.5\ngini = 0.659\nsamples = 81\nvalue = [23, 0, 40, 0, 0, 4, 9, 2, 2, 1]\nclass = 2", fillcolor="#d8f7c5"] ;
228 -> 229 ;
230 [label="gini = 0.382\nsamples = 51\nvalue = [9, 0, 39, 0, 0, 0, 0, 2, 0, 1]\nclass = 2", fillcolor="#a1ec72"] ;
229 -> 230 ;
231 [label="gini = 0.669\nsamples = 30\nvalue = [14, 0, 1, 0, 0, 4, 9, 0, 2, 0]\nclass = 0", fillcolor="#f9e1d0"] ;
229 -> 231 ;
232 [label="gini = 0.0\nsamples = 19\nvalue = [0, 0, 0, 0, 0, 0, 0, 19, 0, 0]\nclass = 7", fillcolor="#a339e5"] ;
228 -> 232 ;
233 [label="pixel241 <= 67.0\ngini = 0.65\nsamples = 156\nvalue = [25.0, 0.0, 7.0, 47.0, 0.0, 75.0, 2.0, 0.0, 0.0, 0.0]\nclass = 5", fillcolor="#cce6f8"] ;
219 -> 233 ;
234 [label="pixel240 <= 155.5\ngini = 0.367\nsamples = 83\nvalue = [2, 0, 3, 11, 0, 65, 2, 0, 0, 0]\nclass = 5", fillcolor="#6ab6ec"] ;
233 -> 234 ;
235 [label="pixel457 <= 139.0\ngini = 0.263\nsamples = 76\nvalue = [2, 0, 3, 4, 0, 65, 2, 0, 0, 0]\nclass = 5", fillcolor="#57ace9"] ;
234 -> 235 ;
236 [label="gini = 0.202\nsamples = 73\nvalue = [1, 0, 3, 4, 0, 65, 0, 0, 0, 0]\nclass = 5", fillcolor="#50a8e8"] ;
235 -> 236 ;
237 [label="gini = 0.444\nsamples = 3\nvalue = [1, 0, 0, 0, 0, 0, 2, 0, 0, 0]\nclass = 6", fillcolor="#9e9cf2"] ;
235 -> 237 ;
238 [label="gini = 0.0\nsamples = 7\nvalue = [0, 0, 0, 7, 0, 0, 0, 0, 0, 0]\nclass = 3", fillcolor="#39e55e"] ;
234 -> 238 ;
239 [label="pixel403 <= 92.0\ngini = 0.636\nsamples = 73\nvalue = [23, 0, 4, 36, 0, 10, 0, 0, 0, 0]\nclass = 3", fillcolor="#ccf8d5"] ;
233 -> 239 ;
240 [label="pixel245 <= 43.0\ngini = 0.501\nsamples = 53\nvalue = [5, 0, 4, 36, 0, 8, 0, 0, 0, 0]\nclass = 3", fillcolor="#84ef9b"] ;
239 -> 240 ;
241 [label="gini = 0.286\nsamples = 43\nvalue = [0, 0, 3, 36, 0, 4, 0, 0, 0, 0]\nclass = 3", fillcolor="#5dea7b"] ;
240 -> 241 ;
242 [label="gini = 0.58\nsamples = 10\nvalue = [5, 0, 1, 0, 0, 4, 0, 0, 0, 0]\nclass = 0", fillcolor="#fbeade"] ;
240 -> 242 ;
243 [label="pixel567 <= 15.5\ngini = 0.18\nsamples = 20\nvalue = [18, 0, 0, 0, 0, 2, 0, 0, 0, 0]\nclass = 0", fillcolor="#e88f4f"] ;
239 -> 243 ;
244 [label="gini = 0.0\nsamples = 18\nvalue = [18, 0, 0, 0, 0, 0, 0, 0, 0, 0]\nclass = 0", fillcolor="#e58139"] ;
243 -> 244 ;
245 [label="gini = 0.0\nsamples = 2\nvalue = [0, 0, 0, 0, 0, 2, 0, 0, 0, 0]\nclass = 5", fillcolor="#399de5"] ;
243 -> 245 ;
246 [label="pixel73 <= 2.0\ngini = 0.053\nsamples = 3585\nvalue = [3489, 0, 10, 13, 4, 14, 47, 3, 0, 5]\nclass = 0", fillcolor="#e6843e"] ;
218 -> 246 ;
247 [label="pixel69 <= 2.5\ngini = 0.045\nsamples = 3569\nvalue = [3487, 0, 10, 13, 4, 14, 33, 3, 0, 5]\nclass = 0", fillcolor="#e6843e"] ;
246 -> 247 ;
248 [label="pixel462 <= 176.5\ngini = 0.043\nsamples = 3564\nvalue = [3487.0, 0.0, 10.0, 12.0, 4.0, 14.0, 29.0, 3.0, 0.0\n5.0]\nclass = 0", fillcolor="#e6843d"] ;
247 -> 248 ;
249 [label="pixel103 <= 1.0\ngini = 0.04\nsamples = 3560\nvalue = [3487, 0, 6, 12, 4, 14, 29, 3, 0, 5]\nclass = 0", fillcolor="#e6843d"] ;
248 -> 249 ;
250 [label="gini = 0.027\nsamples = 3446\nvalue = [3399, 0, 1, 9, 4, 11, 14, 3, 0, 5]\nclass = 0", fillcolor="#e5833c"] ;
249 -> 250 ;
251 [label="gini = 0.384\nsamples = 114\nvalue = [88, 0, 5, 3, 0, 3, 15, 0, 0, 0]\nclass = 0", fillcolor="#eca26d"] ;
249 -> 251 ;
252 [label="gini = 0.0\nsamples = 4\nvalue = [0, 0, 4, 0, 0, 0, 0, 0, 0, 0]\nclass = 2", fillcolor="#7be539"] ;
248 -> 252 ;
253 [label="pixel490 <= 21.5\ngini = 0.32\nsamples = 5\nvalue = [0, 0, 0, 1, 0, 0, 4, 0, 0, 0]\nclass = 6", fillcolor="#6d6aec"] ;
247 -> 253 ;
254 [label="gini = 0.0\nsamples = 4\nvalue = [0, 0, 0, 0, 0, 0, 4, 0, 0, 0]\nclass = 6", fillcolor="#3c39e5"] ;
253 -> 254 ;
255 [label="gini = 0.0\nsamples = 1\nvalue = [0, 0, 0, 1, 0, 0, 0, 0, 0, 0]\nclass = 3", fillcolor="#39e55e"] ;
253 -> 255 ;
256 [label="pixel272 <= 89.0\ngini = 0.219\nsamples = 16\nvalue = [2, 0, 0, 0, 0, 0, 14, 0, 0, 0]\nclass = 6", fillcolor="#5855e9"] ;
246 -> 256 ;
257 [label="gini = 0.0\nsamples = 14\nvalue = [0, 0, 0, 0, 0, 0, 14, 0, 0, 0]\nclass = 6", fillcolor="#3c39e5"] ;
256 -> 257 ;
258 [label="gini = 0.0\nsamples = 2\nvalue = [2, 0, 0, 0, 0, 0, 0, 0, 0, 0]\nclass = 0", fillcolor="#e58139"] ;
256 -> 258 ;
259 [label="pixel299 <= 3.5\ngini = 0.79\nsamples = 486\nvalue = [117, 4, 33, 81, 1, 153, 67, 3, 19, 8]\nclass = 5", fillcolor="#ecf5fc"] ;
217 -> 259 ;
260 [label="pixel486 <= 99.0\ngini = 0.652\nsamples = 263\nvalue = [11, 0, 2, 50, 0, 134, 59, 0, 4, 3]\nclass = 5", fillcolor="#b6dbf5"] ;
259 -> 260 ;
261 [label="pixel160 <= 1.5\ngini = 0.525\nsamples = 190\nvalue = [8.0, 0.0, 2.0, 49.0, 0.0, 121.0, 6.0, 0.0, 2.0, 2.0]\nclass = 5", fillcolor="#9acdf2"] ;
260 -> 261 ;
262 [label="pixel216 <= 72.5\ngini = 0.613\nsamples = 103\nvalue = [2.0, 0.0, 1.0, 46.0, 0.0, 44.0, 6.0, 0.0, 2.0, 2.0]\nclass = 3", fillcolor="#f8fefa"] ;
261 -> 262 ;
263 [label="pixel295 <= 38.5\ngini = 0.557\nsamples = 74\nvalue = [1, 0, 1, 45, 0, 19, 6, 0, 1, 1]\nclass = 3", fillcolor="#a1f3b3"] ;
262 -> 263 ;
264 [label="gini = 0.595\nsamples = 22\nvalue = [0, 0, 1, 3, 0, 13, 4, 0, 1, 0]\nclass = 5", fillcolor="#9ccef2"] ;
263 -> 264 ;
265 [label="gini = 0.332\nsamples = 52\nvalue = [1, 0, 0, 42, 0, 6, 2, 0, 0, 1]\nclass = 3", fillcolor="#64eb81"] ;
263 -> 265 ;
266 [label="pixel302 <= 57.0\ngini = 0.252\nsamples = 29\nvalue = [1, 0, 0, 1, 0, 25, 0, 0, 1, 1]\nclass = 5", fillcolor="#55abe9"] ;
262 -> 266 ;
267 [label="gini = 0.0\nsamples = 25\nvalue = [0, 0, 0, 0, 0, 25, 0, 0, 0, 0]\nclass = 5", fillcolor="#399de5"] ;
266 -> 267 ;
268 [label="gini = 0.75\nsamples = 4\nvalue = [1, 0, 0, 1, 0, 0, 0, 0, 1, 1]\nclass = 0", fillcolor="#ffffff"] ;
266 -> 268 ;
269 [label="pixel359 <= 6.5\ngini = 0.211\nsamples = 87\nvalue = [6, 0, 1, 3, 0, 77, 0, 0, 0, 0]\nclass = 5", fillcolor="#51a9e8"] ;
261 -> 269 ;
270 [label="pixel298 <= 93.5\ngini = 0.095\nsamples = 81\nvalue = [0, 0, 1, 3, 0, 77, 0, 0, 0, 0]\nclass = 5", fillcolor="#43a2e6"] ;
269 -> 270 ;
271 [label="gini = 0.05\nsamples = 79\nvalue = [0, 0, 1, 1, 0, 77, 0, 0, 0, 0]\nclass = 5", fillcolor="#3ea0e6"] ;
270 -> 271 ;
272 [label="gini = 0.0\nsamples = 2\nvalue = [0, 0, 0, 2, 0, 0, 0, 0, 0, 0]\nclass = 3", fillcolor="#39e55e"] ;
270 -> 272 ;
273 [label="gini = 0.0\nsamples = 6\nvalue = [6, 0, 0, 0, 0, 0, 0, 0, 0, 0]\nclass = 0", fillcolor="#e58139"] ;
269 -> 273 ;
274 [label="pixel217 <= 33.0\ngini = 0.438\nsamples = 73\nvalue = [3, 0, 0, 1, 0, 13, 53, 0, 2, 1]\nclass = 6", fillcolor="#7d7bee"] ;
260 -> 274 ;
275 [label="pixel430 <= 14.0\ngini = 0.215\nsamples = 59\nvalue = [1, 0, 0, 1, 0, 5, 52, 0, 0, 0]\nclass = 6", fillcolor="#5553e8"] ;
274 -> 275 ;
276 [label="pixel458 <= 116.5\ngini = 0.656\nsamples = 8\nvalue = [1, 0, 0, 1, 0, 4, 2, 0, 0, 0]\nclass = 5", fillcolor="#bddef6"] ;
275 -> 276 ;
277 [label="gini = 0.625\nsamples = 4\nvalue = [1, 0, 0, 1, 0, 0, 2, 0, 0, 0]\nclass = 6", fillcolor="#bebdf6"] ;
276 -> 277 ;
278 [label="gini = 0.0\nsamples = 4\nvalue = [0, 0, 0, 0, 0, 4, 0, 0, 0, 0]\nclass = 5", fillcolor="#399de5"] ;
276 -> 278 ;
279 [label="pixel207 <= 184.0\ngini = 0.038\nsamples = 51\nvalue = [0, 0, 0, 0, 0, 1, 50, 0, 0, 0]\nclass = 6", fillcolor="#403de6"] ;
275 -> 279 ;
280 [label="gini = 0.0\nsamples = 50\nvalue = [0, 0, 0, 0, 0, 0, 50, 0, 0, 0]\nclass = 6", fillcolor="#3c39e5"] ;
279 -> 280 ;
281 [label="gini = 0.0\nsamples = 1\nvalue = [0, 0, 0, 0, 0, 1, 0, 0, 0, 0]\nclass = 5", fillcolor="#399de5"] ;
279 -> 281 ;
282 [label="pixel301 <= 70.5\ngini = 0.622\nsamples = 14\nvalue = [2, 0, 0, 0, 0, 8, 1, 0, 2, 1]\nclass = 5", fillcolor="#9ccef2"] ;
274 -> 282 ;
283 [label="pixel185 <= 253.5\ngini = 0.198\nsamples = 9\nvalue = [0, 0, 0, 0, 0, 8, 1, 0, 0, 0]\nclass = 5", fillcolor="#52a9e8"] ;
282 -> 283 ;
284 [label="gini = 0.0\nsamples = 8\nvalue = [0, 0, 0, 0, 0, 8, 0, 0, 0, 0]\nclass = 5", fillcolor="#399de5"] ;
283 -> 284 ;
285 [label="gini = 0.0\nsamples = 1\nvalue = [0, 0, 0, 0, 0, 0, 1, 0, 0, 0]\nclass = 6", fillcolor="#3c39e5"] ;
283 -> 285 ;
286 [label="pixel458 <= 89.5\ngini = 0.64\nsamples = 5\nvalue = [2, 0, 0, 0, 0, 0, 0, 0, 2, 1]\nclass = 0", fillcolor="#ffffff"] ;
282 -> 286 ;
287 [label="gini = 0.0\nsamples = 2\nvalue = [0, 0, 0, 0, 0, 0, 0, 0, 2, 0]\nclass = 8", fillcolor="#e539c0"] ;
286 -> 287 ;
288 [label="gini = 0.444\nsamples = 3\nvalue = [2, 0, 0, 0, 0, 0, 0, 0, 0, 1]\nclass = 0", fillcolor="#f2c09c"] ;
286 -> 288 ;
289 [label="pixel379 <= 26.0\ngini = 0.721\nsamples = 223\nvalue = [106.0, 4.0, 31.0, 31.0, 1.0, 19.0, 8.0, 3.0, 15.0\n5.0]\nclass = 0", fillcolor="#f5ceb2"] ;
259 -> 289 ;
290 [label="pixel375 <= 59.5\ngini = 0.466\nsamples = 143\nvalue = [103, 0, 8, 12, 1, 9, 3, 3, 2, 2]\nclass = 0", fillcolor="#eda775"] ;
289 -> 290 ;
291 [label="pixel399 <= 57.0\ngini = 0.758\nsamples = 57\nvalue = [23, 0, 8, 12, 0, 5, 3, 3, 1, 2]\nclass = 0", fillcolor="#f9e0cf"] ;
290 -> 291 ;
292 [label="pixel353 <= 215.0\ngini = 0.782\nsamples = 34\nvalue = [2, 0, 8, 12, 0, 5, 1, 3, 1, 2]\nclass = 3", fillcolor="#e1fbe6"] ;
291 -> 292 ;
293 [label="gini = 0.77\nsamples = 20\nvalue = [2, 0, 8, 0, 0, 3, 1, 3, 1, 2]\nclass = 2", fillcolor="#d8f7c5"] ;
292 -> 293 ;
294 [label="gini = 0.245\nsamples = 14\nvalue = [0, 0, 0, 12, 0, 2, 0, 0, 0, 0]\nclass = 3", fillcolor="#5ae979"] ;
292 -> 294 ;
295 [label="pixel97 <= 126.5\ngini = 0.159\nsamples = 23\nvalue = [21, 0, 0, 0, 0, 0, 2, 0, 0, 0]\nclass = 0", fillcolor="#e78d4c"] ;
291 -> 295 ;
296 [label="gini = 0.0\nsamples = 21\nvalue = [21, 0, 0, 0, 0, 0, 0, 0, 0, 0]\nclass = 0", fillcolor="#e58139"] ;
295 -> 296 ;
297 [label="gini = 0.0\nsamples = 2\nvalue = [0, 0, 0, 0, 0, 0, 2, 0, 0, 0]\nclass = 6", fillcolor="#3c39e5"] ;
295 -> 297 ;
298 [label="pixel664 <= 37.0\ngini = 0.132\nsamples = 86\nvalue = [80, 0, 0, 0, 1, 4, 0, 0, 1, 0]\nclass = 0", fillcolor="#e78a47"] ;
290 -> 298 ;
299 [label="pixel635 <= 252.0\ngini = 0.071\nsamples = 83\nvalue = [80, 0, 0, 0, 1, 1, 0, 0, 1, 0]\nclass = 0", fillcolor="#e68640"] ;
298 -> 299 ;
300 [label="gini = 0.048\nsamples = 82\nvalue = [80, 0, 0, 0, 0, 1, 0, 0, 1, 0]\nclass = 0", fillcolor="#e6843e"] ;
299 -> 300 ;
301 [label="gini = 0.0\nsamples = 1\nvalue = [0, 0, 0, 0, 1, 0, 0, 0, 0, 0]\nclass = 4", fillcolor="#39e5c5"] ;
299 -> 301 ;
302 [label="gini = 0.0\nsamples = 3\nvalue = [0, 0, 0, 0, 0, 3, 0, 0, 0, 0]\nclass = 5", fillcolor="#399de5"] ;
298 -> 302 ;
303 [label="pixel487 <= 45.0\ngini = 0.81\nsamples = 80\nvalue = [3, 4, 23, 19, 0, 10, 5, 0, 13, 3]\nclass = 2", fillcolor="#f6fdf2"] ;
289 -> 303 ;
304 [label="pixel347 <= 60.5\ngini = 0.653\nsamples = 35\nvalue = [3, 0, 1, 18, 0, 9, 0, 0, 1, 3]\nclass = 3", fillcolor="#baf6c7"] ;
303 -> 304 ;
305 [label="pixel412 <= 254.5\ngini = 0.111\nsamples = 17\nvalue = [0, 0, 1, 16, 0, 0, 0, 0, 0, 0]\nclass = 3", fillcolor="#45e768"] ;
304 -> 305 ;
306 [label="gini = 0.0\nsamples = 16\nvalue = [0, 0, 0, 16, 0, 0, 0, 0, 0, 0]\nclass = 3", fillcolor="#39e55e"] ;
305 -> 306 ;
307 [label="gini = 0.0\nsamples = 1\nvalue = [0, 0, 1, 0, 0, 0, 0, 0, 0, 0]\nclass = 2", fillcolor="#7be539"] ;
305 -> 307 ;
308 [label="pixel185 <= 31.5\ngini = 0.679\nsamples = 18\nvalue = [3, 0, 0, 2, 0, 9, 0, 0, 1, 3]\nclass = 5", fillcolor="#b0d8f5"] ;
304 -> 308 ;
309 [label="gini = 0.18\nsamples = 10\nvalue = [0, 0, 0, 1, 0, 9, 0, 0, 0, 0]\nclass = 5", fillcolor="#4fa8e8"] ;
308 -> 309 ;
310 [label="gini = 0.688\nsamples = 8\nvalue = [3, 0, 0, 1, 0, 0, 0, 0, 1, 3]\nclass = 0", fillcolor="#ffffff"] ;
308 -> 310 ;
311 [label="pixel376 <= 3.5\ngini = 0.669\nsamples = 45\nvalue = [0, 4, 22, 1, 0, 1, 5, 0, 12, 0]\nclass = 2", fillcolor="#d7f7c3"] ;
303 -> 311 ;
312 [label="pixel162 <= 31.0\ngini = 0.422\nsamples = 27\nvalue = [0, 4, 20, 1, 0, 0, 2, 0, 0, 0]\nclass = 2", fillcolor="#a3ed75"] ;
311 -> 312 ;
313 [label="gini = 0.244\nsamples = 22\nvalue = [0, 0, 19, 1, 0, 0, 2, 0, 0, 0]\nclass = 2", fillcolor="#8fe957"] ;
312 -> 313 ;
314 [label="gini = 0.32\nsamples = 5\nvalue = [0, 4, 1, 0, 0, 0, 0, 0, 0, 0]\nclass = 1", fillcolor="#e9ec6a"] ;
312 -> 314 ;
315 [label="pixel549 <= 135.5\ngini = 0.512\nsamples = 18\nvalue = [0, 0, 2, 0, 0, 1, 3, 0, 12, 0]\nclass = 8", fillcolor="#ef88d9"] ;
311 -> 315 ;
316 [label="gini = 0.338\nsamples = 15\nvalue = [0, 0, 2, 0, 0, 1, 0, 0, 12, 0]\nclass = 8", fillcolor="#eb67cf"] ;
315 -> 316 ;
317 [label="gini = 0.0\nsamples = 3\nvalue = [0, 0, 0, 0, 0, 0, 3, 0, 0, 0]\nclass = 6", fillcolor="#3c39e5"] ;
315 -> 317 ;
318 [label="pixel348 <= 2.5\ngini = 0.712\nsamples = 720\nvalue = [77.0, 4.0, 314.0, 13.0, 4.0, 198.0, 54.0, 6.0, 50.0\n0.0]\nclass = 2", fillcolor="#e2f9d3"] ;
216 -> 318 ;
319 [label="pixel345 <= 99.5\ngini = 0.339\nsamples = 370\nvalue = [5, 4, 299, 9, 2, 26, 9, 4, 12, 0]\nclass = 2", fillcolor="#96ea62"] ;
318 -> 319 ;
320 [label="pixel407 <= 14.0\ngini = 0.169\nsamples = 324\nvalue = [0, 4, 295, 9, 0, 4, 2, 3, 7, 0]\nclass = 2", fillcolor="#87e74b"] ;
319 -> 320 ;
321 [label="pixel521 <= 1.5\ngini = 0.066\nsamples = 297\nvalue = [0.0, 0.0, 287.0, 4.0, 0.0, 2.0, 1.0, 3.0, 0.0, 0.0]\nclass = 2", fillcolor="#80e640"] ;
320 -> 321 ;
322 [label="pixel679 <= 127.5\ngini = 0.375\nsamples = 4\nvalue = [0, 0, 0, 3, 0, 0, 0, 1, 0, 0]\nclass = 3", fillcolor="#7bee94"] ;
321 -> 322 ;
323 [label="gini = 0.0\nsamples = 3\nvalue = [0, 0, 0, 3, 0, 0, 0, 0, 0, 0]\nclass = 3", fillcolor="#39e55e"] ;
322 -> 323 ;
324 [label="gini = 0.0\nsamples = 1\nvalue = [0, 0, 0, 0, 0, 0, 0, 1, 0, 0]\nclass = 7", fillcolor="#a339e5"] ;
322 -> 324 ;
325 [label="pixel709 <= 32.0\ngini = 0.04\nsamples = 293\nvalue = [0, 0, 287, 1, 0, 2, 1, 2, 0, 0]\nclass = 2", fillcolor="#7ee63d"] ;
321 -> 325 ;
326 [label="pixel349 <= 157.0\ngini = 0.027\nsamples = 291\nvalue = [0, 0, 287, 1, 0, 2, 1, 0, 0, 0]\nclass = 2", fillcolor="#7de53c"] ;
325 -> 326 ;
327 [label="gini = 0.021\nsamples = 290\nvalue = [0, 0, 287, 1, 0, 2, 0, 0, 0, 0]\nclass = 2", fillcolor="#7ce53b"] ;
326 -> 327 ;
328 [label="gini = 0.0\nsamples = 1\nvalue = [0, 0, 0, 0, 0, 0, 1, 0, 0, 0]\nclass = 6", fillcolor="#3c39e5"] ;
326 -> 328 ;
329 [label="gini = 0.0\nsamples = 2\nvalue = [0, 0, 0, 0, 0, 0, 0, 2, 0, 0]\nclass = 7", fillcolor="#a339e5"] ;
325 -> 329 ;
330 [label="pixel571 <= 226.5\ngini = 0.782\nsamples = 27\nvalue = [0, 4, 8, 5, 0, 2, 1, 0, 7, 0]\nclass = 2", fillcolor="#f8fef5"] ;
320 -> 330 ;
331 [label="pixel152 <= 1.5\ngini = 0.672\nsamples = 16\nvalue = [0, 3, 0, 5, 0, 1, 0, 0, 7, 0]\nclass = 8", fillcolor="#fadbf4"] ;
330 -> 331 ;
332 [label="pixel519 <= 133.0\ngini = 0.512\nsamples = 11\nvalue = [0, 3, 0, 0, 0, 1, 0, 0, 7, 0]\nclass = 8", fillcolor="#f29ce0"] ;
331 -> 332 ;
333 [label="gini = 0.375\nsamples = 4\nvalue = [0, 3, 0, 0, 0, 1, 0, 0, 0, 0]\nclass = 1", fillcolor="#ecee7b"] ;
332 -> 333 ;
334 [label="gini = 0.0\nsamples = 7\nvalue = [0, 0, 0, 0, 0, 0, 0, 0, 7, 0]\nclass = 8", fillcolor="#e539c0"] ;
332 -> 334 ;
335 [label="gini = 0.0\nsamples = 5\nvalue = [0, 0, 0, 5, 0, 0, 0, 0, 0, 0]\nclass = 3", fillcolor="#39e55e"] ;
331 -> 335 ;
336 [label="pixel186 <= 9.5\ngini = 0.446\nsamples = 11\nvalue = [0, 1, 8, 0, 0, 1, 1, 0, 0, 0]\nclass = 2", fillcolor="#a3ed74"] ;
330 -> 336 ;
337 [label="pixel470 <= 127.0\ngini = 0.667\nsamples = 3\nvalue = [0, 1, 0, 0, 0, 1, 1, 0, 0, 0]\nclass = 1", fillcolor="#ffffff"] ;
336 -> 337 ;
338 [label="gini = 0.5\nsamples = 2\nvalue = [0, 1, 0, 0, 0, 1, 0, 0, 0, 0]\nclass = 1", fillcolor="#ffffff"] ;
337 -> 338 ;
339 [label="gini = 0.0\nsamples = 1\nvalue = [0, 0, 0, 0, 0, 0, 1, 0, 0, 0]\nclass = 6", fillcolor="#3c39e5"] ;
337 -> 339 ;
340 [label="gini = 0.0\nsamples = 8\nvalue = [0, 0, 8, 0, 0, 0, 0, 0, 0, 0]\nclass = 2", fillcolor="#7be539"] ;
336 -> 340 ;
341 [label="pixel208 <= 70.0\ngini = 0.715\nsamples = 46\nvalue = [5, 0, 4, 0, 2, 22, 7, 1, 5, 0]\nclass = 5", fillcolor="#b3d9f5"] ;
319 -> 341 ;
342 [label="pixel326 <= 53.5\ngini = 0.169\nsamples = 22\nvalue = [0, 0, 1, 0, 1, 20, 0, 0, 0, 0]\nclass = 5", fillcolor="#4ca6e7"] ;
341 -> 342 ;
343 [label="gini = 0.0\nsamples = 20\nvalue = [0, 0, 0, 0, 0, 20, 0, 0, 0, 0]\nclass = 5", fillcolor="#399de5"] ;
342 -> 343 ;
344 [label="pixel317 <= 252.5\ngini = 0.5\nsamples = 2\nvalue = [0, 0, 1, 0, 1, 0, 0, 0, 0, 0]\nclass = 2", fillcolor="#ffffff"] ;
342 -> 344 ;
345 [label="gini = 0.0\nsamples = 1\nvalue = [0, 0, 0, 0, 1, 0, 0, 0, 0, 0]\nclass = 4", fillcolor="#39e5c5"] ;
344 -> 345 ;
346 [label="gini = 0.0\nsamples = 1\nvalue = [0, 0, 1, 0, 0, 0, 0, 0, 0, 0]\nclass = 2", fillcolor="#7be539"] ;
344 -> 346 ;
347 [label="pixel216 <= 3.5\ngini = 0.802\nsamples = 24\nvalue = [5, 0, 3, 0, 1, 2, 7, 1, 5, 0]\nclass = 6", fillcolor="#eaeafc"] ;
341 -> 347 ;
348 [label="pixel178 <= 120.5\ngini = 0.46\nsamples = 10\nvalue = [0, 0, 2, 0, 0, 0, 7, 1, 0, 0]\nclass = 6", fillcolor="#8583ef"] ;
347 -> 348 ;
349 [label="gini = 0.0\nsamples = 7\nvalue = [0, 0, 0, 0, 0, 0, 7, 0, 0, 0]\nclass = 6", fillcolor="#3c39e5"] ;
348 -> 349 ;
350 [label="pixel554 <= 161.5\ngini = 0.444\nsamples = 3\nvalue = [0, 0, 2, 0, 0, 0, 0, 1, 0, 0]\nclass = 2", fillcolor="#bdf29c"] ;
348 -> 350 ;
351 [label="gini = 0.0\nsamples = 2\nvalue = [0, 0, 2, 0, 0, 0, 0, 0, 0, 0]\nclass = 2", fillcolor="#7be539"] ;
350 -> 351 ;
352 [label="gini = 0.0\nsamples = 1\nvalue = [0, 0, 0, 0, 0, 0, 0, 1, 0, 0]\nclass = 7", fillcolor="#a339e5"] ;
350 -> 352 ;
353 [label="pixel301 <= 130.5\ngini = 0.714\nsamples = 14\nvalue = [5, 0, 1, 0, 1, 2, 0, 0, 5, 0]\nclass = 0", fillcolor="#ffffff"] ;
347 -> 353 ;
354 [label="pixel161 <= 36.0\ngini = 0.531\nsamples = 8\nvalue = [0, 0, 0, 0, 1, 2, 0, 0, 5, 0]\nclass = 8", fillcolor="#f29ce0"] ;
353 -> 354 ;
355 [label="gini = 0.0\nsamples = 5\nvalue = [0, 0, 0, 0, 0, 0, 0, 0, 5, 0]\nclass = 8", fillcolor="#e539c0"] ;
354 -> 355 ;
356 [label="gini = 0.444\nsamples = 3\nvalue = [0, 0, 0, 0, 1, 2, 0, 0, 0, 0]\nclass = 5", fillcolor="#9ccef2"] ;
354 -> 356 ;
357 [label="pixel303 <= 5.0\ngini = 0.278\nsamples = 6\nvalue = [5, 0, 1, 0, 0, 0, 0, 0, 0, 0]\nclass = 0", fillcolor="#ea9a61"] ;
353 -> 357 ;
358 [label="gini = 0.0\nsamples = 1\nvalue = [0, 0, 1, 0, 0, 0, 0, 0, 0, 0]\nclass = 2", fillcolor="#7be539"] ;
357 -> 358 ;
359 [label="gini = 0.0\nsamples = 5\nvalue = [5, 0, 0, 0, 0, 0, 0, 0, 0, 0]\nclass = 0", fillcolor="#e58139"] ;
357 -> 359 ;
360 [label="pixel415 <= 21.5\ngini = 0.686\nsamples = 350\nvalue = [72.0, 0.0, 15.0, 4.0, 2.0, 172.0, 45.0, 2.0, 38.0\n0.0]\nclass = 5", fillcolor="#b8dcf6"] ;
318 -> 360 ;
361 [label="pixel514 <= 26.0\ngini = 0.587\nsamples = 283\nvalue = [10, 0, 13, 4, 2, 172, 42, 2, 38, 0]\nclass = 5", fillcolor="#94caf1"] ;
360 -> 361 ;
362 [label="pixel384 <= 19.5\ngini = 0.229\nsamples = 169\nvalue = [3, 0, 3, 1, 0, 148, 2, 2, 10, 0]\nclass = 5", fillcolor="#53aae8"] ;
361 -> 362 ;
363 [label="pixel380 <= 98.5\ngini = 0.099\nsamples = 156\nvalue = [2, 0, 0, 1, 0, 148, 2, 0, 3, 0]\nclass = 5", fillcolor="#43a2e6"] ;
362 -> 363 ;
364 [label="pixel467 <= 148.5\ngini = 0.052\nsamples = 152\nvalue = [1, 0, 0, 1, 0, 148, 2, 0, 0, 0]\nclass = 5", fillcolor="#3ea0e6"] ;
363 -> 364 ;
365 [label="gini = 0.026\nsamples = 150\nvalue = [1, 0, 0, 1, 0, 148, 0, 0, 0, 0]\nclass = 5", fillcolor="#3c9ee5"] ;
364 -> 365 ;
366 [label="gini = 0.0\nsamples = 2\nvalue = [0, 0, 0, 0, 0, 0, 2, 0, 0, 0]\nclass = 6", fillcolor="#3c39e5"] ;
364 -> 366 ;
367 [label="pixel524 <= 10.5\ngini = 0.375\nsamples = 4\nvalue = [1, 0, 0, 0, 0, 0, 0, 0, 3, 0]\nclass = 8", fillcolor="#ee7bd5"] ;
363 -> 367 ;
368 [label="gini = 0.0\nsamples = 3\nvalue = [0, 0, 0, 0, 0, 0, 0, 0, 3, 0]\nclass = 8", fillcolor="#e539c0"] ;
367 -> 368 ;
369 [label="gini = 0.0\nsamples = 1\nvalue = [1, 0, 0, 0, 0, 0, 0, 0, 0, 0]\nclass = 0", fillcolor="#e58139"] ;
367 -> 369 ;
370 [label="pixel573 <= 250.5\ngini = 0.627\nsamples = 13\nvalue = [1, 0, 3, 0, 0, 0, 0, 2, 7, 0]\nclass = 8", fillcolor="#f5b0e6"] ;
362 -> 370 ;
371 [label="gini = 0.0\nsamples = 7\nvalue = [0, 0, 0, 0, 0, 0, 0, 0, 7, 0]\nclass = 8", fillcolor="#e539c0"] ;
370 -> 371 ;
372 [label="pixel549 <= 145.0\ngini = 0.611\nsamples = 6\nvalue = [1, 0, 3, 0, 0, 0, 0, 2, 0, 0]\nclass = 2", fillcolor="#def8ce"] ;
370 -> 372 ;
373 [label="gini = 0.444\nsamples = 3\nvalue = [1, 0, 0, 0, 0, 0, 0, 2, 0, 0]\nclass = 7", fillcolor="#d19cf2"] ;
372 -> 373 ;
374 [label="gini = 0.0\nsamples = 3\nvalue = [0, 0, 3, 0, 0, 0, 0, 0, 0, 0]\nclass = 2", fillcolor="#7be539"] ;
372 -> 374 ;
375 [label="pixel406 <= 225.5\ngini = 0.76\nsamples = 114\nvalue = [7, 0, 10, 3, 2, 24, 40, 0, 28, 0]\nclass = 6", fillcolor="#e4e3fb"] ;
361 -> 375 ;
376 [label="pixel133 <= 38.0\ngini = 0.718\nsamples = 89\nvalue = [7.0, 0.0, 10.0, 3.0, 2.0, 23.0, 39.0, 0.0, 5.0, 0.0]\nclass = 6", fillcolor="#d0cff9"] ;
375 -> 376 ;
377 [label="pixel128 <= 13.0\ngini = 0.767\nsamples = 62\nvalue = [6, 0, 10, 2, 2, 23, 14, 0, 5, 0]\nclass = 5", fillcolor="#daedfa"] ;
376 -> 377 ;
378 [label="gini = 0.559\nsamples = 36\nvalue = [2, 0, 3, 0, 2, 23, 1, 0, 5, 0]\nclass = 5", fillcolor="#8cc6f0"] ;
377 -> 378 ;
379 [label="gini = 0.648\nsamples = 26\nvalue = [4, 0, 7, 2, 0, 0, 13, 0, 0, 0]\nclass = 6", fillcolor="#c1c0f7"] ;
377 -> 379 ;
380 [label="pixel413 <= 19.0\ngini = 0.14\nsamples = 27\nvalue = [1, 0, 0, 1, 0, 0, 25, 0, 0, 0]\nclass = 6", fillcolor="#4b48e7"] ;
376 -> 380 ;
381 [label="gini = 0.0\nsamples = 25\nvalue = [0, 0, 0, 0, 0, 0, 25, 0, 0, 0]\nclass = 6", fillcolor="#3c39e5"] ;
380 -> 381 ;
382 [label="gini = 0.5\nsamples = 2\nvalue = [1, 0, 0, 1, 0, 0, 0, 0, 0, 0]\nclass = 0", fillcolor="#ffffff"] ;
380 -> 382 ;
383 [label="pixel544 <= 241.5\ngini = 0.15\nsamples = 25\nvalue = [0, 0, 0, 0, 0, 1, 1, 0, 23, 0]\nclass = 8", fillcolor="#e749c5"] ;
375 -> 383 ;
384 [label="pixel127 <= 126.5\ngini = 0.08\nsamples = 24\nvalue = [0, 0, 0, 0, 0, 0, 1, 0, 23, 0]\nclass = 8", fillcolor="#e642c3"] ;
383 -> 384 ;
385 [label="gini = 0.0\nsamples = 23\nvalue = [0, 0, 0, 0, 0, 0, 0, 0, 23, 0]\nclass = 8", fillcolor="#e539c0"] ;
384 -> 385 ;
386 [label="gini = 0.0\nsamples = 1\nvalue = [0, 0, 0, 0, 0, 0, 1, 0, 0, 0]\nclass = 6", fillcolor="#3c39e5"] ;
384 -> 386 ;
387 [label="gini = 0.0\nsamples = 1\nvalue = [0, 0, 0, 0, 0, 1, 0, 0, 0, 0]\nclass = 5", fillcolor="#399de5"] ;
383 -> 387 ;
388 [label="pixel97 <= 21.0\ngini = 0.141\nsamples = 67\nvalue = [62, 0, 2, 0, 0, 0, 3, 0, 0, 0]\nclass = 0", fillcolor="#e78b48"] ;
360 -> 388 ;
389 [label="pixel266 <= 17.0\ngini = 0.061\nsamples = 64\nvalue = [62, 0, 2, 0, 0, 0, 0, 0, 0, 0]\nclass = 0", fillcolor="#e6853f"] ;
388 -> 389 ;
390 [label="gini = 0.0\nsamples = 1\nvalue = [0, 0, 1, 0, 0, 0, 0, 0, 0, 0]\nclass = 2", fillcolor="#7be539"] ;
389 -> 390 ;
391 [label="pixel593 <= 211.0\ngini = 0.031\nsamples = 63\nvalue = [62, 0, 1, 0, 0, 0, 0, 0, 0, 0]\nclass = 0", fillcolor="#e5833c"] ;
389 -> 391 ;
392 [label="gini = 0.0\nsamples = 62\nvalue = [62, 0, 0, 0, 0, 0, 0, 0, 0, 0]\nclass = 0", fillcolor="#e58139"] ;
391 -> 392 ;
393 [label="gini = 0.0\nsamples = 1\nvalue = [0, 0, 1, 0, 0, 0, 0, 0, 0, 0]\nclass = 2", fillcolor="#7be539"] ;
391 -> 393 ;
394 [label="gini = 0.0\nsamples = 3\nvalue = [0, 0, 0, 0, 0, 0, 3, 0, 0, 0]\nclass = 6", fillcolor="#3c39e5"] ;
388 -> 394 ;
395 [label="pixel543 <= 1.5\ngini = 0.865\nsamples = 24958\nvalue = [115.0, 480.0, 3613.0, 819.0, 4398.0, 1960.0, 3590.0\n3635.0, 2583.0, 3765.0]\nclass = 4", fillcolor="#f9fefd"] ;
1 -> 395 ;
396 [label="pixel433 <= 0.5\ngini = 0.804\nsamples = 13991\nvalue = [22.0, 167.0, 592.0, 722.0, 3789.0, 1444.0, 273.0, 3045.0\n551.0, 3386.0]\nclass = 4", fillcolor="#f7fefd"] ;
395 -> 396 ;
397 [label="pixel487 <= 20.5\ngini = 0.581\nsamples = 4414\nvalue = [15, 143, 158, 163, 333, 226, 83, 2777, 68, 448]\nclass = 7", fillcolor="#c98bf0"] ;
396 -> 397 ;
398 [label="pixel406 <= 4.5\ngini = 0.45\nsamples = 3705\nvalue = [11, 143, 120, 161, 78, 223, 42, 2722, 60, 145]\nclass = 7", fillcolor="#bd71ec"] ;
397 -> 398 ;
399 [label="pixel156 <= 0.5\ngini = 0.183\nsamples = 2962\nvalue = [10, 63, 97, 36, 7, 4, 38, 2674, 3, 30]\nclass = 7", fillcolor="#ac4de8"] ;
398 -> 399 ;
400 [label="pixel158 <= 3.0\ngini = 0.091\nsamples = 2792\nvalue = [5.0, 24.0, 31.0, 19.0, 7.0, 1.0, 12.0, 2661.0, 2.0\n30.0]\nclass = 7", fillcolor="#a742e6"] ;
399 -> 400 ;
401 [label="pixel581 <= 35.5\ngini = 0.077\nsamples = 2770\nvalue = [2, 10, 31, 18, 7, 1, 8, 2661, 2, 30]\nclass = 7", fillcolor="#a741e6"] ;
400 -> 401 ;
402 [label="pixel460 <= 208.0\ngini = 0.06\nsamples = 2737\nvalue = [2.0, 9.0, 16.0, 12.0, 7.0, 1.0, 5.0, 2654.0, 2.0\n29.0]\nclass = 7", fillcolor="#a63fe6"] ;
401 -> 402 ;
403 [label="gini = 0.051\nsamples = 2724\nvalue = [2.0, 9.0, 16.0, 12.0, 5.0, 1.0, 5.0, 2654.0, 1.0\n19.0]\nclass = 7", fillcolor="#a53ee6"] ;
402 -> 403 ;
404 [label="gini = 0.379\nsamples = 13\nvalue = [0, 0, 0, 0, 2, 0, 0, 0, 1, 10]\nclass = 9", fillcolor="#ec6f86"] ;
402 -> 404 ;
405 [label="pixel583 <= 57.5\ngini = 0.705\nsamples = 33\nvalue = [0, 1, 15, 6, 0, 0, 3, 7, 0, 1]\nclass = 2", fillcolor="#d6f7c2"] ;
401 -> 405 ;
406 [label="gini = 0.753\nsamples = 19\nvalue = [0, 1, 2, 5, 0, 0, 3, 7, 0, 1]\nclass = 7", fillcolor="#f2e3fb"] ;
405 -> 406 ;
407 [label="gini = 0.133\nsamples = 14\nvalue = [0, 0, 13, 1, 0, 0, 0, 0, 0, 0]\nclass = 2", fillcolor="#85e748"] ;
405 -> 407 ;
408 [label="pixel568 <= 61.0\ngini = 0.541\nsamples = 22\nvalue = [3, 14, 0, 1, 0, 0, 4, 0, 0, 0]\nclass = 1", fillcolor="#eff191"] ;
400 -> 408 ;
409 [label="gini = 0.0\nsamples = 14\nvalue = [0, 14, 0, 0, 0, 0, 0, 0, 0, 0]\nclass = 1", fillcolor="#e2e539"] ;
408 -> 409 ;
410 [label="pixel245 <= 29.5\ngini = 0.594\nsamples = 8\nvalue = [3, 0, 0, 1, 0, 0, 4, 0, 0, 0]\nclass = 6", fillcolor="#d8d7fa"] ;
408 -> 410 ;
411 [label="gini = 0.0\nsamples = 4\nvalue = [0, 0, 0, 0, 0, 0, 4, 0, 0, 0]\nclass = 6", fillcolor="#3c39e5"] ;
410 -> 411 ;
412 [label="gini = 0.375\nsamples = 4\nvalue = [3, 0, 0, 1, 0, 0, 0, 0, 0, 0]\nclass = 0", fillcolor="#eeab7b"] ;
410 -> 412 ;
413 [label="pixel484 <= 17.5\ngini = 0.756\nsamples = 170\nvalue = [5.0, 39.0, 66.0, 17.0, 0.0, 3.0, 26.0, 13.0, 1.0\n0.0]\nclass = 2", fillcolor="#e4fad6"] ;
399 -> 413 ;
414 [label="pixel545 <= 61.5\ngini = 0.685\nsamples = 142\nvalue = [0, 39, 66, 17, 0, 3, 3, 13, 1, 0]\nclass = 2", fillcolor="#dcf8cb"] ;
413 -> 414 ;
415 [label="pixel300 <= 16.5\ngini = 0.669\nsamples = 66\nvalue = [0, 33, 8, 16, 0, 3, 1, 5, 0, 0]\nclass = 1", fillcolor="#f5f6bc"] ;
414 -> 415 ;
416 [label="gini = 0.551\nsamples = 51\nvalue = [0, 33, 6, 5, 0, 3, 1, 3, 0, 0]\nclass = 1", fillcolor="#eeef88"] ;
415 -> 416 ;
417 [label="gini = 0.427\nsamples = 15\nvalue = [0, 0, 2, 11, 0, 0, 0, 2, 0, 0]\nclass = 3", fillcolor="#76ed90"] ;
415 -> 417 ;
418 [label="pixel154 <= 0.5\ngini = 0.399\nsamples = 76\nvalue = [0, 6, 58, 1, 0, 0, 2, 8, 1, 0]\nclass = 2", fillcolor="#9eec6d"] ;
414 -> 418 ;
419 [label="gini = 0.645\nsamples = 11\nvalue = [0, 6, 1, 1, 0, 0, 1, 2, 0, 0]\nclass = 1", fillcolor="#f2f3a7"] ;
418 -> 419 ;
420 [label="gini = 0.222\nsamples = 65\nvalue = [0, 0, 57, 0, 0, 0, 1, 6, 1, 0]\nclass = 2", fillcolor="#8de954"] ;
418 -> 420 ;
421 [label="pixel653 <= 10.0\ngini = 0.293\nsamples = 28\nvalue = [5, 0, 0, 0, 0, 0, 23, 0, 0, 0]\nclass = 6", fillcolor="#6664eb"] ;
413 -> 421 ;
422 [label="gini = 0.0\nsamples = 23\nvalue = [0, 0, 0, 0, 0, 0, 23, 0, 0, 0]\nclass = 6", fillcolor="#3c39e5"] ;
421 -> 422 ;
423 [label="gini = 0.0\nsamples = 5\nvalue = [5, 0, 0, 0, 0, 0, 0, 0, 0, 0]\nclass = 0", fillcolor="#e58139"] ;
421 -> 423 ;
424 [label="pixel353 <= 7.0\ngini = 0.829\nsamples = 743\nvalue = [1.0, 80.0, 23.0, 125.0, 71.0, 219.0, 4.0, 48.0, 57.0\n115.0]\nclass = 5", fillcolor="#e1f0fb"] ;
398 -> 424 ;
425 [label="pixel323 <= 6.5\ngini = 0.587\nsamples = 357\nvalue = [0, 6, 12, 83, 17, 212, 0, 2, 13, 12]\nclass = 5", fillcolor="#a2d1f3"] ;
424 -> 425 ;
426 [label="pixel356 <= 2.0\ngini = 0.455\nsamples = 262\nvalue = [0, 2, 12, 15, 17, 191, 0, 2, 12, 11]\nclass = 5", fillcolor="#72b9ed"] ;
425 -> 426 ;
427 [label="pixel146 <= 5.0\ngini = 0.154\nsamples = 208\nvalue = [0, 2, 3, 9, 0, 191, 0, 0, 2, 1]\nclass = 5", fillcolor="#4aa5e7"] ;
426 -> 427 ;
428 [label="gini = 0.131\nsamples = 205\nvalue = [0, 2, 3, 6, 0, 191, 0, 0, 2, 1]\nclass = 5", fillcolor="#47a4e7"] ;
427 -> 428 ;
429 [label="gini = 0.0\nsamples = 3\nvalue = [0, 0, 0, 3, 0, 0, 0, 0, 0, 0]\nclass = 3", fillcolor="#39e55e"] ;
427 -> 429 ;
430 [label="pixel373 <= 169.5\ngini = 0.791\nsamples = 54\nvalue = [0, 0, 9, 6, 17, 0, 0, 2, 10, 10]\nclass = 4", fillcolor="#dffbf6"] ;
426 -> 430 ;
431 [label="gini = 0.765\nsamples = 36\nvalue = [0, 0, 8, 6, 0, 0, 0, 2, 10, 10]\nclass = 8", fillcolor="#ffffff"] ;
430 -> 431 ;
432 [label="gini = 0.105\nsamples = 18\nvalue = [0, 0, 1, 0, 17, 0, 0, 0, 0, 0]\nclass = 4", fillcolor="#45e7c8"] ;
430 -> 432 ;
433 [label="pixel219 <= 8.5\ngini = 0.437\nsamples = 95\nvalue = [0, 4, 0, 68, 0, 21, 0, 0, 1, 1]\nclass = 3", fillcolor="#81ee99"] ;
425 -> 433 ;
434 [label="pixel491 <= 14.0\ngini = 0.252\nsamples = 79\nvalue = [0, 4, 0, 68, 0, 5, 0, 0, 1, 1]\nclass = 3", fillcolor="#56e976"] ;
433 -> 434 ;
435 [label="gini = 0.081\nsamples = 71\nvalue = [0, 0, 0, 68, 0, 3, 0, 0, 0, 0]\nclass = 3", fillcolor="#42e665"] ;
434 -> 435 ;
436 [label="gini = 0.656\nsamples = 8\nvalue = [0, 4, 0, 0, 0, 2, 0, 0, 1, 1]\nclass = 1", fillcolor="#f5f6bd"] ;
434 -> 436 ;
437 [label="gini = 0.0\nsamples = 16\nvalue = [0, 0, 0, 0, 0, 16, 0, 0, 0, 0]\nclass = 5", fillcolor="#399de5"] ;
433 -> 437 ;
438 [label="pixel377 <= 25.5\ngini = 0.832\nsamples = 386\nvalue = [1.0, 74.0, 11.0, 42.0, 54.0, 7.0, 4.0, 46.0, 44.0\n103.0]\nclass = 9", fillcolor="#fdedef"] ;
424 -> 438 ;
439 [label="pixel209 <= 3.0\ngini = 0.683\nsamples = 162\nvalue = [1, 74, 8, 33, 0, 0, 3, 41, 2, 0]\nclass = 1", fillcolor="#f7f8c9"] ;
438 -> 439 ;
440 [label="pixel292 <= 19.5\ngini = 0.237\nsamples = 85\nvalue = [0, 74, 2, 2, 0, 0, 1, 5, 1, 0]\nclass = 1", fillcolor="#e6e954"] ;
439 -> 440 ;
441 [label="gini = 0.099\nsamples = 78\nvalue = [0, 74, 1, 2, 0, 0, 1, 0, 0, 0]\nclass = 1", fillcolor="#e4e643"] ;
440 -> 441 ;
442 [label="gini = 0.449\nsamples = 7\nvalue = [0, 0, 1, 0, 0, 0, 0, 5, 1, 0]\nclass = 7", fillcolor="#c27bee"] ;
440 -> 442 ;
443 [label="pixel546 <= 48.0\ngini = 0.612\nsamples = 77\nvalue = [1, 0, 6, 31, 0, 0, 2, 36, 1, 0]\nclass = 7", fillcolor="#f5e9fc"] ;
439 -> 443 ;
444 [label="gini = 0.061\nsamples = 32\nvalue = [0, 0, 0, 31, 0, 0, 0, 1, 0, 0]\nclass = 3", fillcolor="#3fe663"] ;
443 -> 444 ;
445 [label="gini = 0.374\nsamples = 45\nvalue = [1, 0, 6, 0, 0, 0, 2, 35, 1, 0]\nclass = 7", fillcolor="#bb6cec"] ;
443 -> 445 ;
446 [label="pixel435 <= 208.0\ngini = 0.692\nsamples = 224\nvalue = [0, 0, 3, 9, 54, 7, 1, 5, 42, 103]\nclass = 9", fillcolor="#f8c6cf"] ;
438 -> 446 ;
447 [label="pixel211 <= 43.5\ngini = 0.572\nsamples = 167\nvalue = [0, 0, 2, 8, 49, 7, 0, 2, 2, 97]\nclass = 9", fillcolor="#f4aebb"] ;
446 -> 447 ;
448 [label="gini = 0.428\nsamples = 55\nvalue = [0, 0, 1, 4, 41, 1, 0, 2, 1, 5]\nclass = 4", fillcolor="#70ecd5"] ;
447 -> 448 ;
449 [label="gini = 0.316\nsamples = 112\nvalue = [0, 0, 1, 4, 8, 6, 0, 0, 1, 92]\nclass = 9", fillcolor="#ea5f78"] ;
447 -> 449 ;
450 [label="pixel661 <= 3.0\ngini = 0.485\nsamples = 57\nvalue = [0, 0, 1, 1, 5, 0, 1, 3, 40, 6]\nclass = 8", fillcolor="#ee7bd5"] ;
446 -> 450 ;
451 [label="gini = 0.8\nsamples = 20\nvalue = [0, 0, 1, 1, 4, 0, 1, 3, 4, 6]\nclass = 9", fillcolor="#fce6ea"] ;
450 -> 451 ;
452 [label="gini = 0.053\nsamples = 37\nvalue = [0, 0, 0, 0, 1, 0, 0, 0, 36, 0]\nclass = 8", fillcolor="#e63ec2"] ;
450 -> 452 ;
453 [label="pixel212 <= 17.5\ngini = 0.676\nsamples = 709\nvalue = [4.0, 0.0, 38.0, 2.0, 255.0, 3.0, 41.0, 55.0, 8.0\n303.0]\nclass = 9", fillcolor="#fceaed"] ;
397 -> 453 ;
454 [label="pixel597 <= 62.0\ngini = 0.454\nsamples = 284\nvalue = [1, 0, 18, 0, 206, 0, 30, 11, 2, 16]\nclass = 4", fillcolor="#76edd7"] ;
453 -> 454 ;
455 [label="pixel97 <= 7.0\ngini = 0.396\nsamples = 269\nvalue = [1, 0, 3, 0, 206, 0, 30, 11, 2, 16]\nclass = 4", fillcolor="#6decd4"] ;
454 -> 455 ;
456 [label="pixel267 <= 70.5\ngini = 0.337\nsamples = 255\nvalue = [1, 0, 3, 0, 206, 0, 16, 11, 2, 16]\nclass = 4", fillcolor="#62ead1"] ;
455 -> 456 ;
457 [label="pixel94 <= 11.0\ngini = 0.218\nsamples = 226\nvalue = [0, 0, 0, 0, 199, 0, 16, 1, 1, 9]\nclass = 4", fillcolor="#52e8cc"] ;
456 -> 457 ;
458 [label="gini = 0.171\nsamples = 219\nvalue = [0, 0, 0, 0, 199, 0, 9, 1, 1, 9]\nclass = 4", fillcolor="#4ce7cb"] ;
457 -> 458 ;
459 [label="gini = 0.0\nsamples = 7\nvalue = [0, 0, 0, 0, 0, 0, 7, 0, 0, 0]\nclass = 6", fillcolor="#3c39e5"] ;
457 -> 459 ;
460 [label="pixel376 <= 157.0\ngini = 0.751\nsamples = 29\nvalue = [1, 0, 3, 0, 7, 0, 0, 10, 1, 7]\nclass = 7", fillcolor="#f2e4fb"] ;
456 -> 460 ;
461 [label="gini = 0.696\nsamples = 23\nvalue = [1, 0, 3, 0, 1, 0, 0, 10, 1, 7]\nclass = 7", fillcolor="#eedafa"] ;
460 -> 461 ;
462 [label="gini = 0.0\nsamples = 6\nvalue = [0, 0, 0, 0, 6, 0, 0, 0, 0, 0]\nclass = 4", fillcolor="#39e5c5"] ;
460 -> 462 ;
463 [label="gini = 0.0\nsamples = 14\nvalue = [0, 0, 0, 0, 0, 0, 14, 0, 0, 0]\nclass = 6", fillcolor="#3c39e5"] ;
455 -> 463 ;
464 [label="gini = 0.0\nsamples = 15\nvalue = [0, 0, 15, 0, 0, 0, 0, 0, 0, 0]\nclass = 2", fillcolor="#7be539"] ;
454 -> 464 ;
465 [label="pixel157 <= 0.5\ngini = 0.517\nsamples = 425\nvalue = [3.0, 0.0, 20.0, 2.0, 49.0, 3.0, 11.0, 44.0, 6.0\n287.0]\nclass = 9", fillcolor="#ef8295"] ;
453 -> 465 ;
466 [label="pixel429 <= 1.0\ngini = 0.378\nsamples = 348\nvalue = [0, 0, 3, 1, 24, 3, 0, 43, 4, 270]\nclass = 9", fillcolor="#ec6c83"] ;
465 -> 466 ;
467 [label="pixel206 <= 42.5\ngini = 0.602\nsamples = 90\nvalue = [0, 0, 2, 1, 3, 3, 0, 39, 1, 41]\nclass = 9", fillcolor="#fef7f8"] ;
466 -> 467 ;
468 [label="pixel184 <= 138.5\ngini = 0.52\nsamples = 56\nvalue = [0, 0, 1, 1, 3, 2, 0, 11, 1, 37]\nclass = 9", fillcolor="#f08d9f"] ;
467 -> 468 ;
469 [label="gini = 0.678\nsamples = 32\nvalue = [0, 0, 1, 1, 3, 1, 0, 11, 1, 14]\nclass = 9", fillcolor="#fbe3e7"] ;
468 -> 469 ;
470 [label="gini = 0.08\nsamples = 24\nvalue = [0, 0, 0, 0, 0, 1, 0, 0, 0, 23]\nclass = 9", fillcolor="#e6425f"] ;
468 -> 470 ;
471 [label="pixel493 <= 118.0\ngini = 0.306\nsamples = 34\nvalue = [0, 0, 1, 0, 0, 1, 0, 28, 0, 4]\nclass = 7", fillcolor="#b561ea"] ;
467 -> 471 ;
472 [label="gini = 0.667\nsamples = 6\nvalue = [0, 0, 1, 0, 0, 1, 0, 1, 0, 3]\nclass = 9", fillcolor="#f5b0bc"] ;
471 -> 472 ;
473 [label="gini = 0.069\nsamples = 28\nvalue = [0, 0, 0, 0, 0, 0, 0, 27, 0, 1]\nclass = 7", fillcolor="#a640e6"] ;
471 -> 473 ;
474 [label="pixel470 <= 5.0\ngini = 0.205\nsamples = 258\nvalue = [0, 0, 1, 0, 21, 0, 0, 4, 3, 229]\nclass = 9", fillcolor="#e8516c"] ;
466 -> 474 ;
475 [label="pixel628 <= 248.0\ngini = 0.133\nsamples = 242\nvalue = [0, 0, 0, 0, 10, 0, 0, 4, 3, 225]\nclass = 9", fillcolor="#e74864"] ;
474 -> 475 ;
476 [label="gini = 0.106\nsamples = 237\nvalue = [0.0, 0.0, 0.0, 0.0, 6.0, 0.0, 0.0, 4.0, 3.0, 224.0]\nclass = 9", fillcolor="#e64461"] ;
475 -> 476 ;
477 [label="gini = 0.32\nsamples = 5\nvalue = [0, 0, 0, 0, 4, 0, 0, 0, 0, 1]\nclass = 4", fillcolor="#6aecd4"] ;
475 -> 477 ;
478 [label="pixel347 <= 84.0\ngini = 0.461\nsamples = 16\nvalue = [0, 0, 1, 0, 11, 0, 0, 0, 0, 4]\nclass = 4", fillcolor="#8cf0dd"] ;
474 -> 478 ;
479 [label="gini = 0.32\nsamples = 5\nvalue = [0, 0, 1, 0, 0, 0, 0, 0, 0, 4]\nclass = 9", fillcolor="#ec6a82"] ;
478 -> 479 ;
480 [label="gini = 0.0\nsamples = 11\nvalue = [0, 0, 0, 0, 11, 0, 0, 0, 0, 0]\nclass = 4", fillcolor="#39e5c5"] ;
478 -> 480 ;
481 [label="pixel598 <= 16.5\ngini = 0.774\nsamples = 77\nvalue = [3, 0, 17, 1, 25, 0, 11, 1, 2, 17]\nclass = 4", fillcolor="#e5fcf7"] ;
465 -> 481 ;
482 [label="pixel209 <= 145.5\ngini = 0.622\nsamples = 50\nvalue = [0, 0, 0, 0, 25, 0, 5, 1, 2, 17]\nclass = 4", fillcolor="#cff9f1"] ;
481 -> 482 ;
483 [label="pixel325 <= 1.5\ngini = 0.436\nsamples = 34\nvalue = [0, 0, 0, 0, 25, 0, 4, 1, 1, 3]\nclass = 4", fillcolor="#74edd6"] ;
482 -> 483 ;
484 [label="gini = 0.667\nsamples = 9\nvalue = [0, 0, 0, 0, 1, 0, 4, 0, 1, 3]\nclass = 6", fillcolor="#dedefb"] ;
483 -> 484 ;
485 [label="gini = 0.077\nsamples = 25\nvalue = [0, 0, 0, 0, 24, 0, 0, 1, 0, 0]\nclass = 4", fillcolor="#41e6c7"] ;
483 -> 485 ;
486 [label="pixel545 <= 143.0\ngini = 0.227\nsamples = 16\nvalue = [0, 0, 0, 0, 0, 0, 1, 0, 1, 14]\nclass = 9", fillcolor="#e8536e"] ;
482 -> 486 ;
487 [label="gini = 0.0\nsamples = 14\nvalue = [0, 0, 0, 0, 0, 0, 0, 0, 0, 14]\nclass = 9", fillcolor="#e53958"] ;
486 -> 487 ;
488 [label="gini = 0.5\nsamples = 2\nvalue = [0, 0, 0, 0, 0, 0, 1, 0, 1, 0]\nclass = 6", fillcolor="#ffffff"] ;
486 -> 488 ;
489 [label="pixel377 <= 1.5\ngini = 0.54\nsamples = 27\nvalue = [3, 0, 17, 1, 0, 0, 6, 0, 0, 0]\nclass = 2", fillcolor="#baf197"] ;
481 -> 489 ;
490 [label="gini = 0.0\nsamples = 17\nvalue = [0, 0, 17, 0, 0, 0, 0, 0, 0, 0]\nclass = 2", fillcolor="#7be539"] ;
489 -> 490 ;
491 [label="pixel273 <= 28.5\ngini = 0.54\nsamples = 10\nvalue = [3, 0, 0, 1, 0, 0, 6, 0, 0, 0]\nclass = 6", fillcolor="#abaaf4"] ;
489 -> 491 ;
492 [label="gini = 0.0\nsamples = 6\nvalue = [0, 0, 0, 0, 0, 0, 6, 0, 0, 0]\nclass = 6", fillcolor="#3c39e5"] ;
491 -> 492 ;
493 [label="gini = 0.375\nsamples = 4\nvalue = [3, 0, 0, 1, 0, 0, 0, 0, 0, 0]\nclass = 0", fillcolor="#eeab7b"] ;
491 -> 493 ;
494 [label="pixel212 <= 7.5\ngini = 0.75\nsamples = 9577\nvalue = [7, 24, 434, 559, 3456, 1218, 190, 268, 483, 2938]\nclass = 4", fillcolor="#f0fdfa"] ;
396 -> 494 ;
495 [label="pixel597 <= 1.5\ngini = 0.428\nsamples = 3694\nvalue = [0.0, 19.0, 219.0, 66.0, 2766.0, 237.0, 117.0, 69.0\n74.0, 127.0]\nclass = 4", fillcolor="#6eecd5"] ;
494 -> 495 ;
496 [label="pixel268 <= 158.0\ngini = 0.298\nsamples = 3307\nvalue = [0.0, 19.0, 54.0, 31.0, 2762.0, 90.0, 111.0, 68.0, 46.0\n126.0]\nclass = 4", fillcolor="#5be9cf"] ;
495 -> 496 ;
497 [label="pixel99 <= 0.5\ngini = 0.206\nsamples = 3069\nvalue = [0.0, 19.0, 37.0, 23.0, 2731.0, 47.0, 111.0, 17.0, 43.0\n41.0]\nclass = 4", fillcolor="#50e8cc"] ;
496 -> 497 ;
498 [label="pixel156 <= 120.5\ngini = 0.159\nsamples = 2974\nvalue = [0.0, 19.0, 30.0, 23.0, 2726.0, 45.0, 31.0, 17.0, 42.0\n41.0]\nclass = 4", fillcolor="#4ae7ca"] ;
497 -> 498 ;
499 [label="pixel97 <= 1.5\ngini = 0.099\nsamples = 2866\nvalue = [0.0, 19.0, 21.0, 15.0, 2720.0, 8.0, 28.0, 16.0, 6.0\n33.0]\nclass = 4", fillcolor="#43e6c8"] ;
498 -> 499 ;
500 [label="gini = 0.086\nsamples = 2841\nvalue = [0.0, 19.0, 21.0, 15.0, 2716.0, 8.0, 7.0, 16.0, 6.0\n33.0]\nclass = 4", fillcolor="#42e6c8"] ;
499 -> 500 ;
501 [label="gini = 0.269\nsamples = 25\nvalue = [0, 0, 0, 0, 4, 0, 21, 0, 0, 0]\nclass = 6", fillcolor="#615fea"] ;
499 -> 501 ;
502 [label="pixel517 <= 58.5\ngini = 0.75\nsamples = 108\nvalue = [0, 0, 9, 8, 6, 37, 3, 1, 36, 8]\nclass = 5", fillcolor="#fcfeff"] ;
498 -> 502 ;
503 [label="gini = 0.693\nsamples = 71\nvalue = [0, 0, 9, 8, 5, 36, 0, 1, 4, 8]\nclass = 5", fillcolor="#a9d4f4"] ;
502 -> 503 ;
504 [label="gini = 0.244\nsamples = 37\nvalue = [0, 0, 0, 0, 1, 1, 3, 0, 32, 0]\nclass = 8", fillcolor="#e956c9"] ;
502 -> 504 ;
505 [label="pixel517 <= 67.5\ngini = 0.282\nsamples = 95\nvalue = [0.0, 0.0, 7.0, 0.0, 5.0, 2.0, 80.0, 0.0, 1.0, 0.0]\nclass = 6", fillcolor="#5d5be9"] ;
497 -> 505 ;
506 [label="pixel539 <= 23.0\ngini = 0.68\nsamples = 16\nvalue = [0, 0, 7, 0, 5, 2, 2, 0, 0, 0]\nclass = 2", fillcolor="#e7fadb"] ;
505 -> 506 ;
507 [label="gini = 0.593\nsamples = 9\nvalue = [0, 0, 0, 0, 5, 2, 2, 0, 0, 0]\nclass = 4", fillcolor="#aaf4e6"] ;
506 -> 507 ;
508 [label="gini = 0.0\nsamples = 7\nvalue = [0, 0, 7, 0, 0, 0, 0, 0, 0, 0]\nclass = 2", fillcolor="#7be539"] ;
506 -> 508 ;
509 [label="pixel326 <= 219.5\ngini = 0.025\nsamples = 79\nvalue = [0, 0, 0, 0, 0, 0, 78, 0, 1, 0]\nclass = 6", fillcolor="#3e3ce5"] ;
505 -> 509 ;
510 [label="gini = 0.0\nsamples = 78\nvalue = [0, 0, 0, 0, 0, 0, 78, 0, 0, 0]\nclass = 6", fillcolor="#3c39e5"] ;
509 -> 510 ;
511 [label="gini = 0.0\nsamples = 1\nvalue = [0, 0, 0, 0, 0, 0, 0, 0, 1, 0]\nclass = 8", fillcolor="#e539c0"] ;
509 -> 511 ;
512 [label="pixel383 <= 12.5\ngini = 0.771\nsamples = 238\nvalue = [0.0, 0.0, 17.0, 8.0, 31.0, 43.0, 0.0, 51.0, 3.0\n85.0]\nclass = 9", fillcolor="#fadbe1"] ;
496 -> 512 ;
513 [label="pixel274 <= 2.0\ngini = 0.75\nsamples = 101\nvalue = [0, 0, 11, 6, 9, 42, 0, 21, 2, 10]\nclass = 5", fillcolor="#cbe5f8"] ;
512 -> 513 ;
514 [label="pixel348 <= 1.5\ngini = 0.803\nsamples = 63\nvalue = [0, 0, 11, 6, 9, 7, 0, 21, 2, 7]\nclass = 7", fillcolor="#edd9fa"] ;
513 -> 514 ;
515 [label="gini = 0.636\nsamples = 40\nvalue = [0, 0, 11, 1, 1, 3, 0, 21, 0, 3]\nclass = 7", fillcolor="#dfbbf6"] ;
514 -> 515 ;
516 [label="gini = 0.764\nsamples = 23\nvalue = [0, 0, 0, 5, 8, 4, 0, 0, 2, 4]\nclass = 4", fillcolor="#defbf5"] ;
514 -> 516 ;
517 [label="pixel441 <= 8.0\ngini = 0.145\nsamples = 38\nvalue = [0, 0, 0, 0, 0, 35, 0, 0, 0, 3]\nclass = 5", fillcolor="#4aa5e7"] ;
513 -> 517 ;
518 [label="gini = 0.0\nsamples = 35\nvalue = [0, 0, 0, 0, 0, 35, 0, 0, 0, 0]\nclass = 5", fillcolor="#399de5"] ;
517 -> 518 ;
519 [label="gini = 0.0\nsamples = 3\nvalue = [0, 0, 0, 0, 0, 0, 0, 0, 0, 3]\nclass = 9", fillcolor="#e53958"] ;
517 -> 519 ;
520 [label="pixel373 <= 7.5\ngini = 0.624\nsamples = 137\nvalue = [0, 0, 6, 2, 22, 1, 0, 30, 1, 75]\nclass = 9", fillcolor="#f4acb9"] ;
512 -> 520 ;
521 [label="pixel375 <= 106.5\ngini = 0.646\nsamples = 53\nvalue = [0, 0, 6, 2, 5, 0, 0, 28, 0, 12]\nclass = 7", fillcolor="#dbb2f5"] ;
520 -> 521 ;
522 [label="gini = 0.488\nsamples = 39\nvalue = [0, 0, 6, 2, 1, 0, 0, 27, 0, 3]\nclass = 7", fillcolor="#c481ee"] ;
521 -> 522 ;
523 [label="gini = 0.5\nsamples = 14\nvalue = [0, 0, 0, 0, 4, 0, 0, 1, 0, 9]\nclass = 9", fillcolor="#f29cab"] ;
521 -> 523 ;
524 [label="pixel265 <= 38.0\ngini = 0.396\nsamples = 84\nvalue = [0, 0, 0, 0, 17, 1, 0, 2, 1, 63]\nclass = 9", fillcolor="#ed778c"] ;
520 -> 524 ;
525 [label="gini = 0.444\nsamples = 21\nvalue = [0, 0, 0, 0, 14, 0, 0, 0, 0, 7]\nclass = 4", fillcolor="#9cf2e2"] ;
524 -> 525 ;
526 [label="gini = 0.206\nsamples = 63\nvalue = [0, 0, 0, 0, 3, 1, 0, 2, 1, 56]\nclass = 9", fillcolor="#e8506b"] ;
524 -> 526 ;
527 [label="pixel320 <= 0.5\ngini = 0.66\nsamples = 387\nvalue = [0.0, 0.0, 165.0, 35.0, 4.0, 147.0, 6.0, 1.0, 28.0\n1.0]\nclass = 2", fillcolor="#f5fdf0"] ;
495 -> 527 ;
528 [label="pixel485 <= 10.0\ngini = 0.435\nsamples = 217\nvalue = [0, 0, 160, 27, 2, 13, 4, 0, 10, 1]\nclass = 2", fillcolor="#a3ed74"] ;
527 -> 528 ;
529 [label="pixel427 <= 25.5\ngini = 0.701\nsamples = 61\nvalue = [0, 0, 15, 27, 1, 12, 3, 0, 2, 1]\nclass = 3", fillcolor="#cbf8d5"] ;
528 -> 529 ;
530 [label="pixel327 <= 51.0\ngini = 0.545\nsamples = 44\nvalue = [0, 0, 1, 27, 0, 12, 1, 0, 2, 1]\nclass = 3", fillcolor="#a2f3b4"] ;
529 -> 530 ;
531 [label="gini = 0.548\nsamples = 19\nvalue = [0, 0, 1, 4, 0, 12, 1, 0, 1, 0]\nclass = 5", fillcolor="#95cbf1"] ;
530 -> 531 ;
532 [label="gini = 0.15\nsamples = 25\nvalue = [0, 0, 0, 23, 0, 0, 0, 0, 1, 1]\nclass = 3", fillcolor="#49e76b"] ;
530 -> 532 ;
533 [label="pixel262 <= 217.5\ngini = 0.304\nsamples = 17\nvalue = [0, 0, 14, 0, 1, 0, 2, 0, 0, 0]\nclass = 2", fillcolor="#95ea61"] ;
529 -> 533 ;
534 [label="gini = 0.0\nsamples = 14\nvalue = [0, 0, 14, 0, 0, 0, 0, 0, 0, 0]\nclass = 2", fillcolor="#7be539"] ;
533 -> 534 ;
535 [label="gini = 0.444\nsamples = 3\nvalue = [0, 0, 0, 0, 1, 0, 2, 0, 0, 0]\nclass = 6", fillcolor="#9e9cf2"] ;
533 -> 535 ;
536 [label="pixel351 <= 28.5\ngini = 0.133\nsamples = 156\nvalue = [0, 0, 145, 0, 1, 1, 1, 0, 8, 0]\nclass = 2", fillcolor="#85e748"] ;
528 -> 536 ;
537 [label="pixel319 <= 107.0\ngini = 0.053\nsamples = 148\nvalue = [0, 0, 144, 0, 1, 0, 0, 0, 3, 0]\nclass = 2", fillcolor="#7fe63e"] ;
536 -> 537 ;
538 [label="gini = 0.014\nsamples = 145\nvalue = [0, 0, 144, 0, 0, 0, 0, 0, 1, 0]\nclass = 2", fillcolor="#7ce53a"] ;
537 -> 538 ;
539 [label="gini = 0.444\nsamples = 3\nvalue = [0, 0, 0, 0, 1, 0, 0, 0, 2, 0]\nclass = 8", fillcolor="#f29ce0"] ;
537 -> 539 ;
540 [label="pixel572 <= 45.5\ngini = 0.562\nsamples = 8\nvalue = [0, 0, 1, 0, 0, 1, 1, 0, 5, 0]\nclass = 8", fillcolor="#f08edb"] ;
536 -> 540 ;
541 [label="gini = 0.0\nsamples = 5\nvalue = [0, 0, 0, 0, 0, 0, 0, 0, 5, 0]\nclass = 8", fillcolor="#e539c0"] ;
540 -> 541 ;
542 [label="gini = 0.667\nsamples = 3\nvalue = [0, 0, 1, 0, 0, 1, 1, 0, 0, 0]\nclass = 2", fillcolor="#ffffff"] ;
540 -> 542 ;
543 [label="pixel355 <= 20.5\ngini = 0.364\nsamples = 170\nvalue = [0, 0, 5, 8, 2, 134, 2, 1, 18, 0]\nclass = 5", fillcolor="#68b4eb"] ;
527 -> 543 ;
544 [label="pixel385 <= 60.5\ngini = 0.192\nsamples = 146\nvalue = [0, 0, 1, 7, 0, 131, 2, 1, 4, 0]\nclass = 5", fillcolor="#4ea8e8"] ;
543 -> 544 ;
545 [label="pixel188 <= 248.0\ngini = 0.111\nsamples = 138\nvalue = [0, 0, 0, 6, 0, 130, 1, 0, 1, 0]\nclass = 5", fillcolor="#45a3e7"] ;
544 -> 545 ;
546 [label="gini = 0.059\nsamples = 133\nvalue = [0, 0, 0, 2, 0, 129, 1, 0, 1, 0]\nclass = 5", fillcolor="#3fa0e6"] ;
545 -> 546 ;
547 [label="gini = 0.32\nsamples = 5\nvalue = [0, 0, 0, 4, 0, 1, 0, 0, 0, 0]\nclass = 3", fillcolor="#6aec86"] ;
545 -> 547 ;
548 [label="pixel374 <= 157.0\ngini = 0.781\nsamples = 8\nvalue = [0, 0, 1, 1, 0, 1, 1, 1, 3, 0]\nclass = 8", fillcolor="#f8c6ed"] ;
544 -> 548 ;
549 [label="gini = 0.0\nsamples = 3\nvalue = [0, 0, 0, 0, 0, 0, 0, 0, 3, 0]\nclass = 8", fillcolor="#e539c0"] ;
548 -> 549 ;
550 [label="gini = 0.8\nsamples = 5\nvalue = [0, 0, 1, 1, 0, 1, 1, 1, 0, 0]\nclass = 2", fillcolor="#ffffff"] ;
548 -> 550 ;
551 [label="pixel379 <= 12.5\ngini = 0.608\nsamples = 24\nvalue = [0, 0, 4, 1, 2, 3, 0, 0, 14, 0]\nclass = 8", fillcolor="#f29ce0"] ;
543 -> 551 ;
552 [label="pixel434 <= 253.0\ngini = 0.5\nsamples = 6\nvalue = [0, 0, 4, 0, 1, 1, 0, 0, 0, 0]\nclass = 2", fillcolor="#b0ef88"] ;
551 -> 552 ;
553 [label="gini = 0.0\nsamples = 4\nvalue = [0, 0, 4, 0, 0, 0, 0, 0, 0, 0]\nclass = 2", fillcolor="#7be539"] ;
552 -> 553 ;
554 [label="gini = 0.5\nsamples = 2\nvalue = [0, 0, 0, 0, 1, 1, 0, 0, 0, 0]\nclass = 4", fillcolor="#ffffff"] ;
552 -> 554 ;
555 [label="pixel513 <= 15.0\ngini = 0.377\nsamples = 18\nvalue = [0, 0, 0, 1, 1, 2, 0, 0, 14, 0]\nclass = 8", fillcolor="#ec6ad0"] ;
551 -> 555 ;
556 [label="gini = 0.444\nsamples = 3\nvalue = [0, 0, 0, 1, 0, 2, 0, 0, 0, 0]\nclass = 5", fillcolor="#9ccef2"] ;
555 -> 556 ;
557 [label="gini = 0.124\nsamples = 15\nvalue = [0, 0, 0, 0, 1, 0, 0, 0, 14, 0]\nclass = 8", fillcolor="#e747c4"] ;
555 -> 557 ;
558 [label="pixel354 <= 1.5\ngini = 0.716\nsamples = 5883\nvalue = [7.0, 5.0, 215.0, 493.0, 690.0, 981.0, 73.0, 199.0\n409.0, 2811.0]\nclass = 9", fillcolor="#f5b5c1"] ;
494 -> 558 ;
559 [label="pixel356 <= 4.5\ngini = 0.601\nsamples = 1561\nvalue = [2.0, 5.0, 74.0, 98.0, 78.0, 945.0, 65.0, 13.0, 59.0\n222.0]\nclass = 5", fillcolor="#94caf1"] ;
558 -> 559 ;
560 [label="pixel217 <= 10.0\ngini = 0.416\nsamples = 1248\nvalue = [1, 5, 15, 97, 38, 944, 65, 11, 21, 51]\nclass = 5", fillcolor="#6db7ec"] ;
559 -> 560 ;
561 [label="pixel517 <= 109.0\ngini = 0.744\nsamples = 463\nvalue = [0.0, 5.0, 10.0, 84.0, 38.0, 202.0, 62.0, 9.0, 18.0\n35.0]\nclass = 5", fillcolor="#c1e0f7"] ;
560 -> 561 ;
562 [label="pixel323 <= 4.5\ngini = 0.678\nsamples = 397\nvalue = [0.0, 4.0, 9.0, 84.0, 37.0, 202.0, 12.0, 8.0, 6.0\n35.0]\nclass = 5", fillcolor="#b4daf5"] ;
561 -> 562 ;
563 [label="gini = 0.473\nsamples = 254\nvalue = [0, 0, 9, 16, 13, 181, 4, 2, 3, 26]\nclass = 5", fillcolor="#78bced"] ;
562 -> 563 ;
564 [label="gini = 0.714\nsamples = 143\nvalue = [0, 4, 0, 68, 24, 21, 8, 6, 3, 9]\nclass = 3", fillcolor="#b6f5c3"] ;
562 -> 564 ;
565 [label="pixel269 <= 17.0\ngini = 0.392\nsamples = 66\nvalue = [0, 1, 1, 0, 1, 0, 50, 1, 12, 0]\nclass = 6", fillcolor="#7674ed"] ;
561 -> 565 ;
566 [label="gini = 0.077\nsamples = 50\nvalue = [0, 0, 0, 0, 0, 0, 48, 0, 2, 0]\nclass = 6", fillcolor="#4441e6"] ;
565 -> 566 ;
567 [label="gini = 0.578\nsamples = 16\nvalue = [0, 1, 1, 0, 1, 0, 2, 1, 10, 0]\nclass = 8", fillcolor="#f08edb"] ;
565 -> 567 ;
568 [label="pixel359 <= 31.5\ngini = 0.106\nsamples = 785\nvalue = [1, 0, 5, 13, 0, 742, 3, 2, 3, 16]\nclass = 5", fillcolor="#44a2e6"] ;
560 -> 568 ;
569 [label="pixel325 <= 9.5\ngini = 0.071\nsamples = 769\nvalue = [0, 0, 1, 13, 0, 741, 3, 2, 1, 8]\nclass = 5", fillcolor="#40a1e6"] ;
568 -> 569 ;
570 [label="gini = 0.04\nsamples = 732\nvalue = [0, 0, 1, 2, 0, 717, 3, 0, 1, 8]\nclass = 5", fillcolor="#3d9fe6"] ;
569 -> 570 ;
571 [label="gini = 0.488\nsamples = 37\nvalue = [0, 0, 0, 11, 0, 24, 0, 2, 0, 0]\nclass = 5", fillcolor="#9ccef2"] ;
569 -> 571 ;
572 [label="pixel461 <= 233.5\ngini = 0.664\nsamples = 16\nvalue = [1, 0, 4, 0, 0, 1, 0, 0, 2, 8]\nclass = 9", fillcolor="#f6bdc7"] ;
568 -> 572 ;
573 [label="gini = 0.656\nsamples = 8\nvalue = [1, 0, 4, 0, 0, 1, 0, 0, 2, 0]\nclass = 2", fillcolor="#d3f6bd"] ;
572 -> 573 ;
574 [label="gini = 0.0\nsamples = 8\nvalue = [0, 0, 0, 0, 0, 0, 0, 0, 0, 8]\nclass = 9", fillcolor="#e53958"] ;
572 -> 574 ;
575 [label="pixel539 <= 13.5\ngini = 0.635\nsamples = 313\nvalue = [1, 0, 59, 1, 40, 1, 0, 2, 38, 171]\nclass = 9", fillcolor="#f4a8b5"] ;
559 -> 575 ;
576 [label="pixel214 <= 74.0\ngini = 0.483\nsamples = 247\nvalue = [0, 0, 6, 1, 39, 1, 0, 2, 27, 171]\nclass = 9", fillcolor="#ee8195"] ;
575 -> 576 ;
577 [label="pixel207 <= 8.0\ngini = 0.591\nsamples = 64\nvalue = [0, 0, 3, 0, 37, 0, 0, 2, 6, 16]\nclass = 4", fillcolor="#a8f4e6"] ;
576 -> 577 ;
578 [label="gini = 0.188\nsamples = 39\nvalue = [0, 0, 1, 0, 35, 0, 0, 0, 3, 0]\nclass = 4", fillcolor="#4fe8cb"] ;
577 -> 578 ;
579 [label="gini = 0.557\nsamples = 25\nvalue = [0, 0, 2, 0, 2, 0, 0, 2, 3, 16]\nclass = 9", fillcolor="#f08a9c"] ;
577 -> 579 ;
580 [label="pixel430 <= 2.5\ngini = 0.269\nsamples = 183\nvalue = [0, 0, 3, 1, 2, 1, 0, 0, 21, 155]\nclass = 9", fillcolor="#e95b75"] ;
576 -> 580 ;
581 [label="gini = 0.58\nsamples = 35\nvalue = [0, 0, 1, 1, 0, 1, 0, 0, 16, 16]\nclass = 8", fillcolor="#ffffff"] ;
580 -> 581 ;
582 [label="gini = 0.116\nsamples = 148\nvalue = [0, 0, 2, 0, 2, 0, 0, 0, 5, 139]\nclass = 9", fillcolor="#e74563"] ;
580 -> 582 ;
583 [label="pixel684 <= 19.5\ngini = 0.327\nsamples = 66\nvalue = [1, 0, 53, 0, 1, 0, 0, 0, 11, 0]\nclass = 2", fillcolor="#9aeb68"] ;
575 -> 583 ;
584 [label="pixel332 <= 167.0\ngini = 0.103\nsamples = 56\nvalue = [1, 0, 53, 0, 1, 0, 0, 0, 1, 0]\nclass = 2", fillcolor="#82e644"] ;
583 -> 584 ;
585 [label="gini = 0.036\nsamples = 54\nvalue = [0, 0, 53, 0, 1, 0, 0, 0, 0, 0]\nclass = 2", fillcolor="#7de53d"] ;
584 -> 585 ;
586 [label="gini = 0.5\nsamples = 2\nvalue = [1, 0, 0, 0, 0, 0, 0, 0, 1, 0]\nclass = 0", fillcolor="#ffffff"] ;
584 -> 586 ;
587 [label="gini = 0.0\nsamples = 10\nvalue = [0, 0, 0, 0, 0, 0, 0, 0, 10, 0]\nclass = 8", fillcolor="#e539c0"] ;
583 -> 587 ;
588 [label="pixel156 <= 0.5\ngini = 0.603\nsamples = 4322\nvalue = [5.0, 0.0, 141.0, 395.0, 612.0, 36.0, 8.0, 186.0, 350.0\n2589.0]\nclass = 9", fillcolor="#f195a6"] ;
558 -> 588 ;
589 [label="pixel318 <= 0.5\ngini = 0.431\nsamples = 3344\nvalue = [3, 0, 33, 159, 342, 14, 4, 182, 124, 2483]\nclass = 9", fillcolor="#ec7288"] ;
588 -> 589 ;
590 [label="pixel348 <= 45.0\ngini = 0.745\nsamples = 774\nvalue = [2, 0, 29, 136, 106, 3, 1, 143, 37, 317]\nclass = 9", fillcolor="#f8c8d1"] ;
589 -> 590 ;
591 [label="pixel343 <= 10.0\ngini = 0.741\nsamples = 438\nvalue = [0, 0, 28, 132, 13, 0, 0, 137, 17, 111]\nclass = 7", fillcolor="#fdfcff"] ;
590 -> 591 ;
592 [label="gini = 0.628\nsamples = 311\nvalue = [0.0, 0.0, 27.0, 129.0, 2.0, 0.0, 0.0, 136.0, 8.0\n9.0]\nclass = 7", fillcolor="#fbf7fe"] ;
591 -> 592 ;
593 [label="gini = 0.342\nsamples = 127\nvalue = [0, 0, 1, 3, 11, 0, 0, 1, 9, 102]\nclass = 9", fillcolor="#eb647c"] ;
591 -> 593 ;
594 [label="pixel456 <= 52.5\ngini = 0.543\nsamples = 336\nvalue = [2, 0, 1, 4, 93, 3, 1, 6, 20, 206]\nclass = 9", fillcolor="#f3a3b1"] ;
590 -> 594 ;
595 [label="gini = 0.43\nsamples = 275\nvalue = [2.0, 0.0, 0.0, 3.0, 39.0, 3.0, 1.0, 6.0, 18.0, 203.0]\nclass = 9", fillcolor="#ed758b"] ;
594 -> 595 ;
596 [label="gini = 0.212\nsamples = 61\nvalue = [0, 0, 1, 1, 54, 0, 0, 0, 2, 3]\nclass = 4", fillcolor="#51e8cc"] ;
594 -> 596 ;
597 [label="pixel158 <= 6.0\ngini = 0.28\nsamples = 2570\nvalue = [1.0, 0.0, 4.0, 23.0, 236.0, 11.0, 3.0, 39.0, 87.0\n2166.0]\nclass = 9", fillcolor="#ea5b75"] ;
589 -> 597 ;
598 [label="pixel191 <= 31.5\ngini = 0.237\nsamples = 2477\nvalue = [0.0, 0.0, 4.0, 20.0, 176.0, 10.0, 0.0, 38.0, 74.0\n2155.0]\nclass = 9", fillcolor="#e9556f"] ;
597 -> 598 ;
599 [label="gini = 0.2\nsamples = 2382\nvalue = [0, 0, 4, 17, 128, 2, 0, 36, 70, 2125]\nclass = 9", fillcolor="#e8506b"] ;
598 -> 599 ;
600 [label="gini = 0.635\nsamples = 95\nvalue = [0, 0, 0, 3, 48, 8, 0, 2, 4, 30]\nclass = 4", fillcolor="#c8f8ef"] ;
598 -> 600 ;
601 [label="pixel211 <= 135.5\ngini = 0.548\nsamples = 93\nvalue = [1.0, 0.0, 0.0, 3.0, 60.0, 1.0, 3.0, 1.0, 13.0, 11.0]\nclass = 4", fillcolor="#8bf0dd"] ;
597 -> 601 ;
602 [label="gini = 0.068\nsamples = 57\nvalue = [0, 0, 0, 0, 55, 0, 0, 1, 0, 1]\nclass = 4", fillcolor="#40e6c7"] ;
601 -> 602 ;
603 [label="gini = 0.758\nsamples = 36\nvalue = [1, 0, 0, 3, 5, 1, 3, 0, 13, 10]\nclass = 8", fillcolor="#fce8f8"] ;
601 -> 603 ;
604 [label="pixel182 <= 3.5\ngini = 0.788\nsamples = 978\nvalue = [2, 0, 108, 236, 270, 22, 4, 4, 226, 106]\nclass = 4", fillcolor="#f6fefc"] ;
588 -> 604 ;
605 [label="pixel598 <= 76.0\ngini = 0.339\nsamples = 218\nvalue = [1, 0, 17, 5, 176, 1, 3, 0, 10, 5]\nclass = 4", fillcolor="#62ead1"] ;
604 -> 605 ;
606 [label="pixel438 <= 47.5\ngini = 0.191\nsamples = 196\nvalue = [1.0, 0.0, 4.0, 1.0, 176.0, 1.0, 0.0, 0.0, 8.0, 5.0]\nclass = 4", fillcolor="#4ee8cb"] ;
605 -> 606 ;
607 [label="gini = 0.72\nsamples = 19\nvalue = [1, 0, 1, 0, 5, 1, 0, 0, 8, 3]\nclass = 8", fillcolor="#f9d5f2"] ;
606 -> 607 ;
608 [label="gini = 0.066\nsamples = 177\nvalue = [0, 0, 3, 1, 171, 0, 0, 0, 0, 2]\nclass = 4", fillcolor="#40e6c7"] ;
606 -> 608 ;
609 [label="pixel128 <= 47.5\ngini = 0.591\nsamples = 22\nvalue = [0, 0, 13, 4, 0, 0, 3, 0, 2, 0]\nclass = 2", fillcolor="#bdf29c"] ;
605 -> 609 ;
610 [label="gini = 0.642\nsamples = 9\nvalue = [0, 0, 0, 4, 0, 0, 3, 0, 2, 0]\nclass = 3", fillcolor="#defbe4"] ;
609 -> 610 ;
611 [label="gini = 0.0\nsamples = 13\nvalue = [0, 0, 13, 0, 0, 0, 0, 0, 0, 0]\nclass = 2", fillcolor="#7be539"] ;
609 -> 611 ;
612 [label="pixel346 <= 3.5\ngini = 0.779\nsamples = 760\nvalue = [1, 0, 91, 231, 94, 21, 1, 4, 216, 101]\nclass = 3", fillcolor="#fafefb"] ;
604 -> 612 ;
613 [label="pixel485 <= 60.5\ngini = 0.63\nsamples = 395\nvalue = [0, 0, 82, 216, 14, 6, 0, 4, 64, 9]\nclass = 3", fillcolor="#aaf4ba"] ;
612 -> 613 ;
614 [label="gini = 0.392\nsamples = 268\nvalue = [0, 0, 5, 206, 9, 5, 0, 3, 32, 8]\nclass = 3", fillcolor="#6dec88"] ;
613 -> 614 ;
615 [label="gini = 0.561\nsamples = 127\nvalue = [0, 0, 77, 10, 5, 1, 0, 1, 32, 1]\nclass = 2", fillcolor="#c0f3a1"] ;
613 -> 615 ;
616 [label="pixel430 <= 16.0\ngini = 0.711\nsamples = 365\nvalue = [1, 0, 9, 15, 80, 15, 1, 0, 152, 92]\nclass = 8", fillcolor="#f9d3f1"] ;
612 -> 616 ;
617 [label="gini = 0.407\nsamples = 135\nvalue = [0, 0, 2, 7, 3, 3, 0, 0, 102, 18]\nclass = 8", fillcolor="#ec71d2"] ;
616 -> 617 ;
618 [label="gini = 0.732\nsamples = 230\nvalue = [1, 0, 7, 8, 77, 12, 1, 0, 50, 74]\nclass = 4", fillcolor="#fbfefe"] ;
616 -> 618 ;
619 [label="pixel271 <= 0.5\ngini = 0.788\nsamples = 10967\nvalue = [93.0, 313.0, 3021.0, 97.0, 609.0, 516.0, 3317.0, 590.0\n2032.0, 379.0]\nclass = 6", fillcolor="#f8f8fe"] ;
395 -> 619 ;
620 [label="pixel274 <= 1.0\ngini = 0.568\nsamples = 5018\nvalue = [14, 17, 687, 29, 161, 190, 3146, 32, 660, 82]\nclass = 6", fillcolor="#908ff0"] ;
619 -> 620 ;
621 [label="pixel297 <= 146.5\ngini = 0.316\nsamples = 3764\nvalue = [3.0, 16.0, 250.0, 14.0, 32.0, 174.0, 3094.0, 17.0\n138.0, 26.0]\nclass = 6", fillcolor="#615fea"] ;
620 -> 621 ;
622 [label="pixel657 <= 12.5\ngini = 0.21\nsamples = 3485\nvalue = [2.0, 7.0, 39.0, 12.0, 15.0, 171.0, 3090.0, 1.0, 131.0\n17.0]\nclass = 6", fillcolor="#5351e8"] ;
621 -> 622 ;
623 [label="pixel217 <= 38.5\ngini = 0.102\nsamples = 3189\nvalue = [1.0, 7.0, 38.0, 1.0, 13.0, 61.0, 3021.0, 1.0, 31.0\n15.0]\nclass = 6", fillcolor="#4644e6"] ;
622 -> 623 ;
624 [label="pixel324 <= 173.0\ngini = 0.068\nsamples = 3098\nvalue = [0.0, 7.0, 30.0, 1.0, 12.0, 29.0, 2990.0, 0.0, 20.0\n9.0]\nclass = 6", fillcolor="#4340e6"] ;
623 -> 624 ;
625 [label="pixel662 <= 5.5\ngini = 0.049\nsamples = 3065\nvalue = [0, 1, 8, 1, 12, 28, 2988, 0, 18, 9]\nclass = 6", fillcolor="#413ee6"] ;
624 -> 625 ;
626 [label="gini = 0.033\nsamples = 3026\nvalue = [0.0, 1.0, 7.0, 1.0, 11.0, 17.0, 2975.0, 0.0, 11.0\n3.0]\nclass = 6", fillcolor="#3f3ce5"] ;
625 -> 626 ;
627 [label="gini = 0.752\nsamples = 39\nvalue = [0, 0, 1, 0, 1, 11, 13, 0, 7, 6]\nclass = 6", fillcolor="#f1f1fd"] ;
625 -> 627 ;
628 [label="pixel516 <= 0.5\ngini = 0.514\nsamples = 33\nvalue = [0, 6, 22, 0, 0, 1, 2, 0, 2, 0]\nclass = 2", fillcolor="#b1f08a"] ;
624 -> 628 ;
629 [label="gini = 0.245\nsamples = 7\nvalue = [0, 6, 0, 0, 0, 1, 0, 0, 0, 0]\nclass = 1", fillcolor="#e7e95a"] ;
628 -> 629 ;
630 [label="gini = 0.272\nsamples = 26\nvalue = [0, 0, 22, 0, 0, 0, 2, 0, 2, 0]\nclass = 2", fillcolor="#91e95a"] ;
628 -> 630 ;
631 [label="pixel131 <= 6.0\ngini = 0.733\nsamples = 91\nvalue = [1, 0, 8, 0, 1, 32, 31, 1, 11, 6]\nclass = 5", fillcolor="#fcfdff"] ;
623 -> 631 ;
632 [label="pixel384 <= 15.0\ngini = 0.613\nsamples = 50\nvalue = [0.0, 0.0, 2.0, 0.0, 1.0, 29.0, 2.0, 1.0, 9.0, 6.0]\nclass = 5", fillcolor="#9ecff2"] ;
631 -> 632 ;
633 [label="gini = 0.274\nsamples = 33\nvalue = [0, 0, 1, 0, 0, 28, 2, 1, 1, 0]\nclass = 5", fillcolor="#59ade9"] ;
632 -> 633 ;
634 [label="gini = 0.644\nsamples = 17\nvalue = [0, 0, 1, 0, 1, 1, 0, 0, 8, 6]\nclass = 8", fillcolor="#fadbf4"] ;
632 -> 634 ;
635 [label="pixel292 <= 15.5\ngini = 0.47\nsamples = 41\nvalue = [1, 0, 6, 0, 0, 3, 29, 0, 2, 0]\nclass = 6", fillcolor="#7f7dee"] ;
631 -> 635 ;
636 [label="gini = 0.58\nsamples = 10\nvalue = [1, 0, 6, 0, 0, 0, 1, 0, 2, 0]\nclass = 2", fillcolor="#bdf29c"] ;
635 -> 636 ;
637 [label="gini = 0.175\nsamples = 31\nvalue = [0, 0, 0, 0, 0, 3, 28, 0, 0, 0]\nclass = 6", fillcolor="#514ee8"] ;
635 -> 637 ;
638 [label="pixel357 <= 14.5\ngini = 0.692\nsamples = 296\nvalue = [1, 0, 1, 11, 2, 110, 69, 0, 100, 2]\nclass = 5", fillcolor="#f5fafe"] ;
622 -> 638 ;
639 [label="pixel459 <= 246.0\ngini = 0.614\nsamples = 205\nvalue = [1, 0, 1, 11, 0, 109, 61, 0, 22, 0]\nclass = 5", fillcolor="#bddef6"] ;
638 -> 639 ;
640 [label="pixel489 <= 50.5\ngini = 0.53\nsamples = 157\nvalue = [1, 0, 1, 11, 0, 103, 21, 0, 20, 0]\nclass = 5", fillcolor="#88c4ef"] ;
639 -> 640 ;
641 [label="gini = 0.344\nsamples = 116\nvalue = [1, 0, 0, 11, 0, 93, 6, 0, 5, 0]\nclass = 5", fillcolor="#64b2eb"] ;
640 -> 641 ;
642 [label="gini = 0.672\nsamples = 41\nvalue = [0, 0, 1, 0, 0, 10, 15, 0, 15, 0]\nclass = 6", fillcolor="#ffffff"] ;
640 -> 642 ;
643 [label="pixel543 <= 90.0\ngini = 0.288\nsamples = 48\nvalue = [0, 0, 0, 0, 0, 6, 40, 0, 2, 0]\nclass = 6", fillcolor="#615fea"] ;
639 -> 643 ;
644 [label="gini = 0.375\nsamples = 8\nvalue = [0, 0, 0, 0, 0, 6, 2, 0, 0, 0]\nclass = 5", fillcolor="#7bbeee"] ;
643 -> 644 ;
645 [label="gini = 0.095\nsamples = 40\nvalue = [0, 0, 0, 0, 0, 0, 38, 0, 2, 0]\nclass = 6", fillcolor="#4643e6"] ;
643 -> 645 ;
646 [label="pixel485 <= 182.5\ngini = 0.256\nsamples = 91\nvalue = [0, 0, 0, 0, 2, 1, 8, 0, 78, 2]\nclass = 8", fillcolor="#e958ca"] ;
638 -> 646 ;
647 [label="pixel553 <= 253.5\ngini = 0.073\nsamples = 80\nvalue = [0, 0, 0, 0, 1, 1, 1, 0, 77, 0]\nclass = 8", fillcolor="#e641c2"] ;
646 -> 647 ;
648 [label="gini = 0.05\nsamples = 79\nvalue = [0, 0, 0, 0, 1, 0, 1, 0, 77, 0]\nclass = 8", fillcolor="#e63ec2"] ;
647 -> 648 ;
649 [label="gini = 0.0\nsamples = 1\nvalue = [0, 0, 0, 0, 0, 1, 0, 0, 0, 0]\nclass = 5", fillcolor="#399de5"] ;
647 -> 649 ;
650 [label="pixel407 <= 11.5\ngini = 0.545\nsamples = 11\nvalue = [0, 0, 0, 0, 1, 0, 7, 0, 1, 2]\nclass = 6", fillcolor="#9391f1"] ;
646 -> 650 ;
651 [label="gini = 0.625\nsamples = 4\nvalue = [0, 0, 0, 0, 1, 0, 0, 0, 1, 2]\nclass = 9", fillcolor="#f6bdc7"] ;
650 -> 651 ;
652 [label="gini = 0.0\nsamples = 7\nvalue = [0, 0, 0, 0, 0, 0, 7, 0, 0, 0]\nclass = 6", fillcolor="#3c39e5"] ;
650 -> 652 ;
653 [label="pixel321 <= 13.0\ngini = 0.418\nsamples = 279\nvalue = [1.0, 9.0, 211.0, 2.0, 17.0, 3.0, 4.0, 16.0, 7.0, 9.0]\nclass = 2", fillcolor="#9dec6c"] ;
621 -> 653 ;
654 [label="pixel689 <= 14.0\ngini = 0.295\nsamples = 251\nvalue = [1, 8, 210, 1, 6, 1, 2, 13, 1, 8]\nclass = 2", fillcolor="#92e95b"] ;
653 -> 654 ;
655 [label="pixel159 <= 5.0\ngini = 0.219\nsamples = 238\nvalue = [1, 8, 210, 0, 5, 1, 2, 6, 1, 4]\nclass = 2", fillcolor="#8be851"] ;
654 -> 655 ;
656 [label="pixel356 <= 61.5\ngini = 0.152\nsamples = 226\nvalue = [1, 4, 208, 0, 1, 0, 2, 5, 1, 4]\nclass = 2", fillcolor="#86e749"] ;
655 -> 656 ;
657 [label="gini = 0.106\nsamples = 219\nvalue = [1, 4, 207, 0, 1, 0, 0, 5, 0, 1]\nclass = 2", fillcolor="#82e644"] ;
656 -> 657 ;
658 [label="gini = 0.694\nsamples = 7\nvalue = [0, 0, 1, 0, 0, 0, 2, 0, 1, 3]\nclass = 9", fillcolor="#fad7de"] ;
656 -> 658 ;
659 [label="pixel291 <= 32.0\ngini = 0.736\nsamples = 12\nvalue = [0, 4, 2, 0, 4, 1, 0, 1, 0, 0]\nclass = 1", fillcolor="#ffffff"] ;
655 -> 659 ;
660 [label="gini = 0.656\nsamples = 8\nvalue = [0, 4, 2, 0, 0, 1, 0, 1, 0, 0]\nclass = 1", fillcolor="#f5f6bd"] ;
659 -> 660 ;
661 [label="gini = 0.0\nsamples = 4\nvalue = [0, 0, 0, 0, 4, 0, 0, 0, 0, 0]\nclass = 4", fillcolor="#39e5c5"] ;
659 -> 661 ;
662 [label="pixel548 <= 105.5\ngini = 0.604\nsamples = 13\nvalue = [0, 0, 0, 1, 1, 0, 0, 7, 0, 4]\nclass = 7", fillcolor="#e0bdf6"] ;
654 -> 662 ;
663 [label="pixel717 <= 55.0\ngini = 0.5\nsamples = 6\nvalue = [0, 0, 0, 1, 1, 0, 0, 0, 0, 4]\nclass = 9", fillcolor="#ef889b"] ;
662 -> 663 ;
664 [label="gini = 0.5\nsamples = 2\nvalue = [0, 0, 0, 1, 1, 0, 0, 0, 0, 0]\nclass = 3", fillcolor="#ffffff"] ;
663 -> 664 ;
665 [label="gini = 0.0\nsamples = 4\nvalue = [0, 0, 0, 0, 0, 0, 0, 0, 0, 4]\nclass = 9", fillcolor="#e53958"] ;
663 -> 665 ;
666 [label="gini = 0.0\nsamples = 7\nvalue = [0, 0, 0, 0, 0, 0, 0, 7, 0, 0]\nclass = 7", fillcolor="#a339e5"] ;
662 -> 666 ;
667 [label="pixel493 <= 245.5\ngini = 0.773\nsamples = 28\nvalue = [0, 1, 1, 1, 11, 2, 2, 3, 6, 1]\nclass = 4", fillcolor="#d2f9f2"] ;
653 -> 667 ;
668 [label="pixel575 <= 70.5\ngini = 0.755\nsamples = 14\nvalue = [0, 0, 1, 1, 1, 2, 2, 0, 6, 1]\nclass = 8", fillcolor="#f6bdea"] ;
667 -> 668 ;
669 [label="pixel352 <= 202.5\ngini = 0.245\nsamples = 7\nvalue = [0, 0, 0, 0, 0, 0, 0, 0, 6, 1]\nclass = 8", fillcolor="#e95acb"] ;
668 -> 669 ;
670 [label="gini = 0.0\nsamples = 6\nvalue = [0, 0, 0, 0, 0, 0, 0, 0, 6, 0]\nclass = 8", fillcolor="#e539c0"] ;
669 -> 670 ;
671 [label="gini = 0.0\nsamples = 1\nvalue = [0, 0, 0, 0, 0, 0, 0, 0, 0, 1]\nclass = 9", fillcolor="#e53958"] ;
669 -> 671 ;
672 [label="pixel215 <= 8.0\ngini = 0.776\nsamples = 7\nvalue = [0, 0, 1, 1, 1, 2, 2, 0, 0, 0]\nclass = 5", fillcolor="#ffffff"] ;
668 -> 672 ;
673 [label="gini = 0.72\nsamples = 5\nvalue = [0, 0, 1, 1, 1, 2, 0, 0, 0, 0]\nclass = 5", fillcolor="#cee6f8"] ;
672 -> 673 ;
674 [label="gini = 0.0\nsamples = 2\nvalue = [0, 0, 0, 0, 0, 0, 2, 0, 0, 0]\nclass = 6", fillcolor="#3c39e5"] ;
672 -> 674 ;
675 [label="pixel547 <= 239.0\ngini = 0.439\nsamples = 14\nvalue = [0, 1, 0, 0, 10, 0, 0, 3, 0, 0]\nclass = 4", fillcolor="#81eeda"] ;
667 -> 675 ;
676 [label="pixel572 <= 152.0\ngini = 0.165\nsamples = 11\nvalue = [0, 1, 0, 0, 10, 0, 0, 0, 0, 0]\nclass = 4", fillcolor="#4de8cb"] ;
675 -> 676 ;
677 [label="gini = 0.0\nsamples = 10\nvalue = [0, 0, 0, 0, 10, 0, 0, 0, 0, 0]\nclass = 4", fillcolor="#39e5c5"] ;
676 -> 677 ;
678 [label="gini = 0.0\nsamples = 1\nvalue = [0, 1, 0, 0, 0, 0, 0, 0, 0, 0]\nclass = 1", fillcolor="#e2e539"] ;
676 -> 678 ;
679 [label="gini = 0.0\nsamples = 3\nvalue = [0, 0, 0, 0, 0, 0, 0, 3, 0, 0]\nclass = 7", fillcolor="#a339e5"] ;
675 -> 679 ;
680 [label="pixel657 <= 6.5\ngini = 0.69\nsamples = 1254\nvalue = [11.0, 1.0, 437.0, 15.0, 129.0, 16.0, 52.0, 15.0, 522.0\n56.0]\nclass = 8", fillcolor="#fceaf8"] ;
620 -> 680 ;
681 [label="pixel160 <= 5.0\ngini = 0.612\nsamples = 669\nvalue = [8.0, 1.0, 397.0, 11.0, 100.0, 10.0, 46.0, 13.0, 42.0\n41.0]\nclass = 2", fillcolor="#baf198"] ;
680 -> 681 ;
682 [label="pixel215 <= 39.0\ngini = 0.792\nsamples = 264\nvalue = [1, 1, 34, 7, 97, 10, 40, 13, 22, 39]\nclass = 4", fillcolor="#cdf8f0"] ;
681 -> 682 ;
683 [label="pixel247 <= 4.5\ngini = 0.556\nsamples = 157\nvalue = [1.0, 1.0, 3.0, 0.0, 96.0, 8.0, 40.0, 0.0, 7.0, 1.0]\nclass = 4", fillcolor="#a0f3e3"] ;
682 -> 683 ;
684 [label="pixel550 <= 8.0\ngini = 0.421\nsamples = 47\nvalue = [0.0, 0.0, 0.0, 0.0, 4.0, 6.0, 35.0, 0.0, 1.0, 1.0]\nclass = 6", fillcolor="#7573ed"] ;
683 -> 684 ;
685 [label="gini = 0.519\nsamples = 9\nvalue = [0, 0, 0, 0, 1, 6, 0, 0, 1, 1]\nclass = 5", fillcolor="#83c2ef"] ;
684 -> 685 ;
686 [label="gini = 0.145\nsamples = 38\nvalue = [0, 0, 0, 0, 3, 0, 35, 0, 0, 0]\nclass = 6", fillcolor="#4d4ae7"] ;
684 -> 686 ;
687 [label="pixel489 <= 1.0\ngini = 0.294\nsamples = 110\nvalue = [1, 1, 3, 0, 92, 2, 5, 0, 6, 0]\nclass = 4", fillcolor="#5beacf"] ;
683 -> 687 ;
688 [label="gini = 0.531\nsamples = 8\nvalue = [0, 0, 0, 0, 1, 2, 5, 0, 0, 0]\nclass = 6", fillcolor="#9e9cf2"] ;
687 -> 688 ;
689 [label="gini = 0.2\nsamples = 102\nvalue = [1, 1, 3, 0, 91, 0, 0, 0, 6, 0]\nclass = 4", fillcolor="#50e8cc"] ;
687 -> 689 ;
690 [label="pixel538 <= 1.5\ngini = 0.751\nsamples = 107\nvalue = [0.0, 0.0, 31.0, 7.0, 1.0, 2.0, 0.0, 13.0, 15.0, 38.0]\nclass = 9", fillcolor="#fdedf0"] ;
682 -> 690 ;
691 [label="pixel411 <= 94.5\ngini = 0.649\nsamples = 70\nvalue = [0, 0, 3, 1, 1, 2, 0, 13, 13, 37]\nclass = 9", fillcolor="#f4acb9"] ;
690 -> 691 ;
692 [label="gini = 0.616\nsamples = 23\nvalue = [0.0, 0.0, 1.0, 0.0, 0.0, 2.0, 0.0, 5.0, 13.0, 2.0]\nclass = 8", fillcolor="#f3a7e3"] ;
691 -> 692 ;
693 [label="gini = 0.414\nsamples = 47\nvalue = [0, 0, 2, 1, 1, 0, 0, 8, 0, 35]\nclass = 9", fillcolor="#ed768b"] ;
691 -> 693 ;
694 [label="pixel380 <= 165.0\ngini = 0.397\nsamples = 37\nvalue = [0, 0, 28, 6, 0, 0, 0, 0, 2, 1]\nclass = 2", fillcolor="#a1ed72"] ;
690 -> 694 ;
695 [label="gini = 0.069\nsamples = 28\nvalue = [0, 0, 27, 0, 0, 0, 0, 0, 1, 0]\nclass = 2", fillcolor="#80e640"] ;
694 -> 695 ;
696 [label="gini = 0.519\nsamples = 9\nvalue = [0, 0, 1, 6, 0, 0, 0, 0, 1, 1]\nclass = 3", fillcolor="#83ef9a"] ;
694 -> 696 ;
697 [label="pixel320 <= 182.0\ngini = 0.194\nsamples = 405\nvalue = [7.0, 0.0, 363.0, 4.0, 3.0, 0.0, 6.0, 0.0, 20.0, 2.0]\nclass = 2", fillcolor="#89e84f"] ;
681 -> 697 ;
698 [label="pixel249 <= 53.0\ngini = 0.102\nsamples = 380\nvalue = [2, 0, 360, 4, 3, 0, 1, 0, 8, 2]\nclass = 2", fillcolor="#82e644"] ;
697 -> 698 ;
699 [label="pixel655 <= 214.0\ngini = 0.083\nsamples = 376\nvalue = [2.0, 0.0, 360.0, 4.0, 3.0, 0.0, 1.0, 0.0, 4.0, 2.0]\nclass = 2", fillcolor="#81e642"] ;
698 -> 699 ;
700 [label="gini = 0.068\nsamples = 373\nvalue = [2, 0, 360, 4, 3, 0, 1, 0, 1, 2]\nclass = 2", fillcolor="#80e640"] ;
699 -> 700 ;
701 [label="gini = 0.0\nsamples = 3\nvalue = [0, 0, 0, 0, 0, 0, 0, 0, 3, 0]\nclass = 8", fillcolor="#e539c0"] ;
699 -> 701 ;
702 [label="gini = 0.0\nsamples = 4\nvalue = [0, 0, 0, 0, 0, 0, 0, 0, 4, 0]\nclass = 8", fillcolor="#e539c0"] ;
698 -> 702 ;
703 [label="pixel520 <= 40.5\ngini = 0.675\nsamples = 25\nvalue = [5, 0, 3, 0, 0, 0, 5, 0, 12, 0]\nclass = 8", fillcolor="#f6bae9"] ;
697 -> 703 ;
704 [label="gini = 0.0\nsamples = 10\nvalue = [0, 0, 0, 0, 0, 0, 0, 0, 10, 0]\nclass = 8", fillcolor="#e539c0"] ;
703 -> 704 ;
705 [label="pixel624 <= 55.0\ngini = 0.72\nsamples = 15\nvalue = [5, 0, 3, 0, 0, 0, 5, 0, 2, 0]\nclass = 0", fillcolor="#ffffff"] ;
703 -> 705 ;
706 [label="gini = 0.0\nsamples = 5\nvalue = [0, 0, 0, 0, 0, 0, 5, 0, 0, 0]\nclass = 6", fillcolor="#3c39e5"] ;
705 -> 706 ;
707 [label="gini = 0.62\nsamples = 10\nvalue = [5, 0, 3, 0, 0, 0, 0, 0, 2, 0]\nclass = 0", fillcolor="#f8dbc6"] ;
705 -> 707 ;
708 [label="pixel405 <= 3.5\ngini = 0.319\nsamples = 585\nvalue = [3.0, 0.0, 40.0, 4.0, 29.0, 6.0, 6.0, 2.0, 480.0\n15.0]\nclass = 8", fillcolor="#ea5fcc"] ;
680 -> 708 ;
709 [label="pixel187 <= 5.5\ngini = 0.744\nsamples = 102\nvalue = [0.0, 0.0, 31.0, 0.0, 19.0, 0.0, 3.0, 2.0, 34.0, 13.0]\nclass = 8", fillcolor="#fef7fc"] ;
708 -> 709 ;
